<?xml version="1.0"?>
<MethodSetup Method="BDT::BDTG">
  <GeneralInfo>
    <Info name="TMVA Release" value="4.1.2 [262402]"/>
    <Info name="ROOT Release" value="5.30/00 [335360]"/>
    <Info name="Creator" value="koos"/>
    <Info name="Date" value="Mon Mar 25 14:23:57 2013"/>
    <Info name="Host" value="Linux lhc03.phys.sfu.ca 2.6.18-238.5.1.el5 #1 SMP Tue Mar 1 18:58:43 EST 2011 x86_64 x86_64 x86_64 GNU/Linux"/>
    <Info name="Dir" value="/home/koos/HiggsAnalysis/boostRegression/TMVA-v4.1.2/test"/>
    <Info name="Training events" value="80964"/>
    <Info name="TrainingTime" value="2.35537400e+01"/>
    <Info name="AnalysisType" value="Regression"/>
  </GeneralInfo>
  <Options>
    <Option name="V" modified="Yes">False</Option>
    <Option name="VerbosityLevel" modified="No">Default</Option>
    <Option name="VarTransform" modified="No">None</Option>
    <Option name="H" modified="Yes">False</Option>
    <Option name="CreateMVAPdfs" modified="No">False</Option>
    <Option name="IgnoreNegWeightsInTraining" modified="No">False</Option>
    <Option name="NTrees" modified="Yes">300</Option>
    <Option name="RenormByClass" modified="No">False</Option>
    <Option name="BoostType" modified="Yes">Grad</Option>
    <Option name="AdaBoostR2Loss" modified="No">quadratic</Option>
    <Option name="UseBaggedGrad" modified="Yes">True</Option>
    <Option name="GradBaggingFraction" modified="Yes">5.000000e-01</Option>
    <Option name="Shrinkage" modified="Yes">1.000000e-01</Option>
    <Option name="AdaBoostBeta" modified="No">1.000000e+00</Option>
    <Option name="UseRandomisedTrees" modified="No">False</Option>
    <Option name="UseNvars" modified="No">3</Option>
    <Option name="UsePoissonNvars" modified="No">True</Option>
    <Option name="UseNTrainEvents" modified="No">80964</Option>
    <Option name="UseWeightedTrees" modified="No">True</Option>
    <Option name="UseYesNoLeaf" modified="No">False</Option>
    <Option name="NodePurityLimit" modified="No">5.000000e-01</Option>
    <Option name="SeparationType" modified="No">regressionvariance</Option>
    <Option name="nEventsMin" modified="No">10</Option>
    <Option name="nCuts" modified="Yes">30</Option>
    <Option name="UseFisherCuts" modified="No">False</Option>
    <Option name="MinLinCorrForFisher" modified="No">8.000000e-01</Option>
    <Option name="UseExclusiveVars" modified="No">False</Option>
    <Option name="PruneStrength" modified="No">0.000000e+00</Option>
    <Option name="PruneMethod" modified="No">nopruning</Option>
    <Option name="PruneBeforeBoost" modified="No">False</Option>
    <Option name="PruningValFraction" modified="No">5.000000e-01</Option>
    <Option name="NNodesMax" modified="Yes">15</Option>
    <Option name="MaxDepth" modified="Yes">3</Option>
    <Option name="DoBoostMonitor" modified="No">False</Option>
    <Option name="NegWeightTreatment" modified="No">ignorenegweights</Option>
  </Options>
  <Variables NVar="6">
    <Variable VarIndex="0" Expression="dilep_pt" Label="dilep_pt" Title="dilep_pt" Unit="" Internal="dilep_pt" Type="F" Min="6.85626417e-02" Max="3.48228119e+02"/>
    <Variable VarIndex="1" Expression="dilep_pxpy" Label="dilep_pxpy" Title="dilep_pxpy" Unit="" Internal="dilep_pxpy" Type="F" Min="-3.19883545e+02" Max="2.65711365e+02"/>
    <Variable VarIndex="2" Expression="trackmet_pxpy" Label="trackmet_pxpy" Title="trackmet_pxpy" Unit="" Internal="trackmet_pxpy" Type="F" Min="-7.71871338e+03" Max="2.70306152e+03"/>
    <Variable VarIndex="3" Expression="calomet_pxpy" Label="calomet_pxpy" Title="calomet_pxpy" Unit="" Internal="calomet_pxpy" Type="F" Min="-2.78792877e+02" Max="3.15924683e+02"/>
    <Variable VarIndex="4" Expression="numprimvertices" Label="numprimvertices" Title="Number of primary vertices" Unit="" Internal="numprimvertices" Type="F" Min="1.00000000e+00" Max="3.30000000e+01"/>
    <Variable VarIndex="5" Expression="mu" Label="mu" Title="Average number of interactions per bunch crossing" Unit="" Internal="mu" Type="F" Min="1.00000000e+00" Max="3.80000000e+01"/>
  </Variables>
  <Spectators NSpec="0"/>
  <Classes NClass="1">
    <Class Name="Regression" Index="0"/>
  </Classes>
  <Targets NTrgt="1">
    <Target TargetIndex="0" Expression="pxpy" Label="pxpy" Title="pxpy" Unit="" Internal="pxpy" Type="F" Min="-3.05572113e+02" Max="2.35681763e+02"/>
  </Targets>
  <Transformations NTransformations="0"/>
  <MVAPdfs/>
  <Weights NTrees="300" AnalysisType="1">
    <BinaryTree type="DecisionTree" boostWeight="6.1429924964904785e+00" itree="0">
      <Node pos="s" depth="0" NCoef="0" IVar="3" Cut="-3.8254993438720703e+01" cType="0" res="-5.7585353851318359e+00" rms="8.3201927185058594e+01" purity="1.0000000000000000e+00" nType="0">
        <Node pos="l" depth="1" NCoef="0" IVar="1" Cut="-4.4268245697021484e+00" cType="0" res="4.4399757385253906e+01" rms="6.2381877899169922e+01" purity="1.0000000000000000e+00" nType="0">
          <Node pos="l" depth="2" NCoef="0" IVar="3" Cut="5.5306678771972656e+01" cType="0" res="7.2565376281738281e+01" rms="3.4623634338378906e+01" purity="1.0000000000000000e+00" nType="0">
            <Node pos="l" depth="3" NCoef="0" IVar="-1" Cut="0.0000000000000000e+00" cType="1" res="3.5370948314666748e+00" rms="1.4891453742980957e+01" purity="1.0000000000000000e+00" nType="-99"/>
            <Node pos="r" depth="3" NCoef="0" IVar="-1" Cut="0.0000000000000000e+00" cType="1" res="-2.6237601041793823e-01" rms="3.6721870422363281e+01" purity="1.0000000000000000e+00" nType="-99"/>
          </Node>
          <Node pos="r" depth="2" NCoef="0" IVar="3" Cut="5.3215137481689453e+01" cType="0" res="-1.2759248733520508e+01" rms="6.6925109863281250e+01" purity="1.0000000000000000e+00" nType="0">
            <Node pos="l" depth="3" NCoef="0" IVar="-1" Cut="0.0000000000000000e+00" cType="1" res="-3.3234316110610962e-01" rms="4.4021266937255859e+01" purity="1.0000000000000000e+00" nType="-99"/>
            <Node pos="r" depth="3" NCoef="0" IVar="-1" Cut="0.0000000000000000e+00" cType="1" res="-8.7711530923843384e-01" rms="4.1718002319335938e+01" purity="1.0000000000000000e+00" nType="-99"/>
          </Node>
        </Node>
        <Node pos="r" depth="1" NCoef="0" IVar="1" Cut="5.4720504760742188e+01" cType="0" res="-8.5417892456054688e+01" rms="3.7352127075195312e+01" purity="1.0000000000000000e+00" nType="0">
          <Node pos="l" depth="2" NCoef="0" IVar="3" Cut="-1.1763345336914062e+02" cType="0" res="2.7667644500732422e+01" rms="3.3210685729980469e+01" purity="1.0000000000000000e+00" nType="0">
            <Node pos="l" depth="3" NCoef="0" IVar="-1" Cut="0.0000000000000000e+00" cType="1" res="-5.7538542896509171e-02" rms="2.9187271118164062e+01" purity="1.0000000000000000e+00" nType="-99"/>
            <Node pos="r" depth="3" NCoef="0" IVar="-1" Cut="0.0000000000000000e+00" cType="1" res="-1.1280455589294434e+00" rms="2.4043348312377930e+01" purity="1.0000000000000000e+00" nType="-99"/>
          </Node>
          <Node pos="r" depth="2" NCoef="0" IVar="1" Cut="-4.0886492729187012e+00" cType="0" res="-9.2300262451171875e+01" rms="2.4234329223632812e+01" purity="1.0000000000000000e+00" nType="0">
            <Node pos="l" depth="3" NCoef="0" IVar="-1" Cut="0.0000000000000000e+00" cType="1" res="-1.0164488554000854e+00" rms="3.9956195831298828e+01" purity="1.0000000000000000e+00" nType="-99"/>
            <Node pos="r" depth="3" NCoef="0" IVar="-1" Cut="0.0000000000000000e+00" cType="1" res="-3.8555138111114502e+00" rms="1.0681806564331055e+01" purity="1.0000000000000000e+00" nType="-99"/>
          </Node>
        </Node>
      </Node>
    </BinaryTree>
    <BinaryTree type="DecisionTree" boostWeight="1.0000000000000000e+00" itree="1">
      <Node pos="s" depth="0" NCoef="0" IVar="3" Cut="-3.6589199066162109e+01" cType="0" res="-5.1450669765472412e-01" rms="7.8962181091308594e+01" purity="1.0000000000000000e+00" nType="0">
        <Node pos="l" depth="1" NCoef="0" IVar="1" Cut="-5.2538291931152344e+01" cType="0" res="3.5175918579101562e+01" rms="6.7016136169433594e+01" purity="1.0000000000000000e+00" nType="0">
          <Node pos="l" depth="2" NCoef="0" IVar="1" Cut="-4.0239973068237305e+00" cType="0" res="5.6206142425537109e+01" rms="4.9297985076904297e+01" purity="1.0000000000000000e+00" nType="0">
            <Node pos="l" depth="3" NCoef="0" IVar="-1" Cut="0.0000000000000000e+00" cType="1" res="-1.4639684557914734e-01" rms="3.0901378631591797e+01" purity="1.0000000000000000e+00" nType="-99"/>
            <Node pos="r" depth="3" NCoef="0" IVar="-1" Cut="0.0000000000000000e+00" cType="1" res="-6.0956567525863647e-01" rms="6.0166946411132812e+01" purity="1.0000000000000000e+00" nType="-99"/>
          </Node>
          <Node pos="r" depth="2" NCoef="0" IVar="0" Cut="8.1316329956054688e+01" cType="0" res="-7.4844757080078125e+01" rms="2.9230190277099609e+01" purity="1.0000000000000000e+00" nType="0">
            <Node pos="l" depth="3" NCoef="0" IVar="-1" Cut="0.0000000000000000e+00" cType="1" res="-1.7454410791397095e+00" rms="2.0963764190673828e+01" purity="1.0000000000000000e+00" nType="-99"/>
            <Node pos="r" depth="3" NCoef="0" IVar="-1" Cut="0.0000000000000000e+00" cType="1" res="-1.0501409769058228e+00" rms="3.2986137390136719e+01" purity="1.0000000000000000e+00" nType="-99"/>
          </Node>
        </Node>
        <Node pos="r" depth="1" NCoef="0" IVar="1" Cut="5.0991710662841797e+01" cType="0" res="-7.6946174621582031e+01" rms="3.7414714813232422e+01" purity="1.0000000000000000e+00" nType="0">
          <Node pos="l" depth="2" NCoef="0" IVar="1" Cut="5.6001930236816406e+01" cType="0" res="1.6368808746337891e+01" rms="3.7230884552001953e+01" purity="1.0000000000000000e+00" nType="0">
            <Node pos="l" depth="3" NCoef="0" IVar="-1" Cut="0.0000000000000000e+00" cType="1" res="-9.0570315718650818e-02" rms="3.3639533996582031e+01" purity="1.0000000000000000e+00" nType="-99"/>
            <Node pos="r" depth="3" NCoef="0" IVar="-1" Cut="0.0000000000000000e+00" cType="1" res="-4.4451168179512024e-01" rms="3.7133789062500000e+01" purity="1.0000000000000000e+00" nType="-99"/>
          </Node>
          <Node pos="r" depth="2" NCoef="0" IVar="1" Cut="-3.7336146831512451e+00" cType="0" res="-8.4927230834960938e+01" rms="2.4343061447143555e+01" purity="1.0000000000000000e+00" nType="0">
            <Node pos="l" depth="3" NCoef="0" IVar="-1" Cut="0.0000000000000000e+00" cType="1" res="-9.2129510641098022e-01" rms="3.6412563323974609e+01" purity="1.0000000000000000e+00" nType="-99"/>
            <Node pos="r" depth="3" NCoef="0" IVar="-1" Cut="0.0000000000000000e+00" cType="1" res="-2.9709165096282959e+00" rms="9.6991720199584961e+00" purity="1.0000000000000000e+00" nType="-99"/>
          </Node>
        </Node>
      </Node>
    </BinaryTree>
    <BinaryTree type="DecisionTree" boostWeight="1.0000000000000000e+00" itree="2">
      <Node pos="s" depth="0" NCoef="0" IVar="1" Cut="-2.9616005420684814e+00" cType="0" res="1.0174858093261719e+01" rms="7.4508056640625000e+01" purity="1.0000000000000000e+00" nType="0">
        <Node pos="l" depth="1" NCoef="0" IVar="3" Cut="-3.9432228088378906e+01" cType="0" res="5.6836181640625000e+01" rms="4.8140682220458984e+01" purity="1.0000000000000000e+00" nType="0">
          <Node pos="l" depth="2" NCoef="0" IVar="3" Cut="3.7078598022460938e+01" cType="0" res="7.0430770874023438e+01" rms="3.0510351181030273e+01" purity="1.0000000000000000e+00" nType="0">
            <Node pos="l" depth="3" NCoef="0" IVar="-1" Cut="0.0000000000000000e+00" cType="1" res="1.9004242420196533e+00" rms="1.1816623687744141e+01" purity="1.0000000000000000e+00" nType="-99"/>
            <Node pos="r" depth="3" NCoef="0" IVar="-1" Cut="0.0000000000000000e+00" cType="1" res="-2.3725429177284241e-01" rms="4.0907321929931641e+01" purity="1.0000000000000000e+00" nType="-99"/>
          </Node>
          <Node pos="r" depth="2" NCoef="0" IVar="1" Cut="5.7920639038085938e+01" cType="0" res="-1.4512499809265137e+01" rms="5.9451473236083984e+01" purity="1.0000000000000000e+00" nType="0">
            <Node pos="l" depth="3" NCoef="0" IVar="-1" Cut="0.0000000000000000e+00" cType="1" res="-1.3130075298249722e-02" rms="3.2271293640136719e+01" purity="1.0000000000000000e+00" nType="-99"/>
            <Node pos="r" depth="3" NCoef="0" IVar="-1" Cut="0.0000000000000000e+00" cType="1" res="-7.7287083864212036e-01" rms="3.6310268402099609e+01" purity="1.0000000000000000e+00" nType="-99"/>
          </Node>
        </Node>
        <Node pos="r" depth="1" NCoef="0" IVar="3" Cut="-2.7218775749206543e+00" cType="0" res="-5.8707756042480469e+01" rms="4.8646503448486328e+01" purity="1.0000000000000000e+00" nType="0">
          <Node pos="l" depth="2" NCoef="0" IVar="1" Cut="-5.2155570983886719e+01" cType="0" res="-1.0417455673217773e+01" rms="5.2330959320068359e+01" purity="1.0000000000000000e+00" nType="0">
            <Node pos="l" depth="3" NCoef="0" IVar="-1" Cut="0.0000000000000000e+00" cType="1" res="-4.3591380119323730e-01" rms="4.3128078460693359e+01" purity="1.0000000000000000e+00" nType="-99"/>
            <Node pos="r" depth="3" NCoef="0" IVar="-1" Cut="0.0000000000000000e+00" cType="1" res="-1.0296956300735474e+00" rms="3.2095870971679688e+01" purity="1.0000000000000000e+00" nType="-99"/>
          </Node>
          <Node pos="r" depth="2" NCoef="0" IVar="3" Cut="-2.4912937164306641e+01" cType="0" res="-8.4718826293945312e+01" rms="1.5278237342834473e+01" purity="1.0000000000000000e+00" nType="0">
            <Node pos="l" depth="3" NCoef="0" IVar="-1" Cut="0.0000000000000000e+00" cType="1" res="-1.3623305559158325e+00" rms="2.5567968368530273e+01" purity="1.0000000000000000e+00" nType="-99"/>
            <Node pos="r" depth="3" NCoef="0" IVar="-1" Cut="0.0000000000000000e+00" cType="1" res="-2.2379121780395508e+00" rms="1.0842349052429199e+01" purity="1.0000000000000000e+00" nType="-99"/>
          </Node>
        </Node>
      </Node>
    </BinaryTree>
    <BinaryTree type="DecisionTree" boostWeight="1.0000000000000000e+00" itree="3">
      <Node pos="s" depth="0" NCoef="0" IVar="1" Cut="2.6402149200439453e+00" cType="0" res="1.8589065074920654e+00" rms="7.6087707519531250e+01" purity="1.0000000000000000e+00" nType="0">
        <Node pos="l" depth="1" NCoef="0" IVar="3" Cut="-8.8084869384765625e+01" cType="0" res="4.9221645355224609e+01" rms="5.6761653900146484e+01" purity="1.0000000000000000e+00" nType="0">
          <Node pos="l" depth="2" NCoef="0" IVar="3" Cut="3.8670497894287109e+01" cType="0" res="6.4032409667968750e+01" rms="3.6797660827636719e+01" purity="1.0000000000000000e+00" nType="0">
            <Node pos="l" depth="3" NCoef="0" IVar="-1" Cut="0.0000000000000000e+00" cType="1" res="3.0041162967681885e+00" rms="1.1178653717041016e+01" purity="1.0000000000000000e+00" nType="-99"/>
            <Node pos="r" depth="3" NCoef="0" IVar="-1" Cut="0.0000000000000000e+00" cType="1" res="-2.5706458091735840e-01" rms="4.2897815704345703e+01" purity="1.0000000000000000e+00" nType="-99"/>
          </Node>
          <Node pos="r" depth="2" NCoef="0" IVar="1" Cut="5.6223335266113281e+01" cType="0" res="-8.2771903991699219e+01" rms="2.2150823593139648e+01" purity="1.0000000000000000e+00" nType="0">
            <Node pos="l" depth="3" NCoef="0" IVar="-1" Cut="0.0000000000000000e+00" cType="1" res="-7.5115841627120972e-01" rms="3.5877109527587891e+01" purity="1.0000000000000000e+00" nType="-99"/>
            <Node pos="r" depth="3" NCoef="0" IVar="-1" Cut="0.0000000000000000e+00" cType="1" res="-2.2706291675567627e+00" rms="1.0929838180541992e+01" purity="1.0000000000000000e+00" nType="-99"/>
          </Node>
        </Node>
        <Node pos="r" depth="1" NCoef="0" IVar="3" Cut="6.5738044738769531e+01" cType="0" res="-4.5795917510986328e+01" rms="6.2004684448242188e+01" purity="1.0000000000000000e+00" nType="0">
          <Node pos="l" depth="2" NCoef="0" IVar="1" Cut="-5.9845172882080078e+01" cType="0" res="6.9590476989746094e+01" rms="3.4050960540771484e+01" purity="1.0000000000000000e+00" nType="0">
            <Node pos="l" depth="3" NCoef="0" IVar="-1" Cut="0.0000000000000000e+00" cType="1" res="5.5415791273117065e-01" rms="2.0657863616943359e+01" purity="1.0000000000000000e+00" nType="-99"/>
            <Node pos="r" depth="3" NCoef="0" IVar="-1" Cut="0.0000000000000000e+00" cType="1" res="-5.9869343042373657e-01" rms="3.2362270355224609e+01" purity="1.0000000000000000e+00" nType="-99"/>
          </Node>
          <Node pos="r" depth="2" NCoef="0" IVar="3" Cut="-1.4018794059753418e+01" cType="0" res="-6.8527473449707031e+01" rms="3.5127223968505859e+01" purity="1.0000000000000000e+00" nType="0">
            <Node pos="l" depth="3" NCoef="0" IVar="-1" Cut="0.0000000000000000e+00" cType="1" res="-5.6349891424179077e-01" rms="4.4713199615478516e+01" purity="1.0000000000000000e+00" nType="-99"/>
            <Node pos="r" depth="3" NCoef="0" IVar="-1" Cut="0.0000000000000000e+00" cType="1" res="-1.6122299432754517e+00" rms="1.3741965293884277e+01" purity="1.0000000000000000e+00" nType="-99"/>
          </Node>
        </Node>
      </Node>
    </BinaryTree>
    <BinaryTree type="DecisionTree" boostWeight="1.0000000000000000e+00" itree="4">
      <Node pos="s" depth="0" NCoef="0" IVar="1" Cut="-4.1333932876586914e+00" cType="0" res="3.8183088302612305e+00" rms="7.8436111450195312e+01" purity="1.0000000000000000e+00" nType="0">
        <Node pos="l" depth="1" NCoef="0" IVar="3" Cut="-6.5755485534667969e+01" cType="0" res="5.0086879730224609e+01" rms="6.0108688354492188e+01" purity="1.0000000000000000e+00" nType="0">
          <Node pos="l" depth="2" NCoef="0" IVar="3" Cut="1.1560712814331055e+01" cType="0" res="6.7756889343261719e+01" rms="3.6919193267822266e+01" purity="1.0000000000000000e+00" nType="0">
            <Node pos="l" depth="3" NCoef="0" IVar="-1" Cut="0.0000000000000000e+00" cType="1" res="6.8604379892349243e-01" rms="1.8931203842163086e+01" purity="1.0000000000000000e+00" nType="-99"/>
            <Node pos="r" depth="3" NCoef="0" IVar="-1" Cut="0.0000000000000000e+00" cType="1" res="-3.0165526270866394e-01" rms="4.7233463287353516e+01" purity="1.0000000000000000e+00" nType="-99"/>
          </Node>
          <Node pos="r" depth="2" NCoef="0" IVar="1" Cut="5.7405296325683594e+01" cType="0" res="-7.6400901794433594e+01" rms="3.8539615631103516e+01" purity="1.0000000000000000e+00" nType="0">
            <Node pos="l" depth="3" NCoef="0" IVar="-1" Cut="0.0000000000000000e+00" cType="1" res="-3.0255031585693359e-01" rms="3.5490360260009766e+01" purity="1.0000000000000000e+00" nType="-99"/>
            <Node pos="r" depth="3" NCoef="0" IVar="-1" Cut="0.0000000000000000e+00" cType="1" res="-1.2821271419525146e+00" rms="2.3326423645019531e+01" purity="1.0000000000000000e+00" nType="-99"/>
          </Node>
        </Node>
        <Node pos="r" depth="1" NCoef="0" IVar="3" Cut="6.6066184997558594e+01" cType="0" res="-5.8164047241210938e+01" rms="5.3330123901367188e+01" purity="1.0000000000000000e+00" nType="0">
          <Node pos="l" depth="2" NCoef="0" IVar="1" Cut="-6.1324871063232422e+01" cType="0" res="5.7390113830566406e+01" rms="3.9381046295166016e+01" purity="1.0000000000000000e+00" nType="0">
            <Node pos="l" depth="3" NCoef="0" IVar="-1" Cut="0.0000000000000000e+00" cType="1" res="3.3354249596595764e-01" rms="2.5374332427978516e+01" purity="1.0000000000000000e+00" nType="-99"/>
            <Node pos="r" depth="3" NCoef="0" IVar="-1" Cut="0.0000000000000000e+00" cType="1" res="-5.2145421504974365e-01" rms="3.7404949188232422e+01" purity="1.0000000000000000e+00" nType="-99"/>
          </Node>
          <Node pos="r" depth="2" NCoef="0" IVar="3" Cut="-5.0303751230239868e-01" cType="0" res="-7.1458526611328125e+01" rms="3.5775859832763672e+01" purity="1.0000000000000000e+00" nType="0">
            <Node pos="l" depth="3" NCoef="0" IVar="-1" Cut="0.0000000000000000e+00" cType="1" res="-4.9582630395889282e-01" rms="4.5058372497558594e+01" purity="1.0000000000000000e+00" nType="-99"/>
            <Node pos="r" depth="3" NCoef="0" IVar="-1" Cut="0.0000000000000000e+00" cType="1" res="-1.2926756143569946e+00" rms="1.6601102828979492e+01" purity="1.0000000000000000e+00" nType="-99"/>
          </Node>
        </Node>
      </Node>
    </BinaryTree>
    <BinaryTree type="DecisionTree" boostWeight="1.0000000000000000e+00" itree="5">
      <Node pos="s" depth="0" NCoef="0" IVar="1" Cut="2.6272990703582764e+00" cType="0" res="2.5695364475250244e+00" rms="7.1966331481933594e+01" purity="1.0000000000000000e+00" nType="0">
        <Node pos="l" depth="1" NCoef="0" IVar="3" Cut="-7.9070320129394531e+01" cType="0" res="5.3141242980957031e+01" rms="4.7039722442626953e+01" purity="1.0000000000000000e+00" nType="0">
          <Node pos="l" depth="2" NCoef="0" IVar="3" Cut="-2.4088207244873047e+01" cType="0" res="6.0737785339355469e+01" rms="3.6395286560058594e+01" purity="1.0000000000000000e+00" nType="0">
            <Node pos="l" depth="3" NCoef="0" IVar="-1" Cut="0.0000000000000000e+00" cType="1" res="2.0294655859470367e-01" rms="2.3568658828735352e+01" purity="1.0000000000000000e+00" nType="-99"/>
            <Node pos="r" depth="3" NCoef="0" IVar="-1" Cut="0.0000000000000000e+00" cType="1" res="-3.6712071299552917e-01" rms="4.8159160614013672e+01" purity="1.0000000000000000e+00" nType="-99"/>
          </Node>
          <Node pos="r" depth="2" NCoef="0" IVar="1" Cut="4.6219093322753906e+01" cType="0" res="-6.2766826629638672e+01" rms="3.8058795928955078e+01" purity="1.0000000000000000e+00" nType="0">
            <Node pos="l" depth="3" NCoef="0" IVar="-1" Cut="0.0000000000000000e+00" cType="1" res="-5.4244041442871094e-01" rms="4.1151912689208984e+01" purity="1.0000000000000000e+00" nType="-99"/>
            <Node pos="r" depth="3" NCoef="0" IVar="-1" Cut="0.0000000000000000e+00" cType="1" res="-1.7395036220550537e+00" rms="1.6159725189208984e+01" purity="1.0000000000000000e+00" nType="-99"/>
          </Node>
        </Node>
        <Node pos="r" depth="1" NCoef="0" IVar="3" Cut="1.1035735130310059e+01" cType="0" res="-5.5072357177734375e+01" rms="4.8193908691406250e+01" purity="1.0000000000000000e+00" nType="0">
          <Node pos="l" depth="2" NCoef="0" IVar="1" Cut="-5.3285076141357422e+01" cType="0" res="-1.1157318115234375e+01" rms="5.6555046081542969e+01" purity="1.0000000000000000e+00" nType="0">
            <Node pos="l" depth="3" NCoef="0" IVar="-1" Cut="0.0000000000000000e+00" cType="1" res="-2.2858671844005585e-01" rms="4.3156543731689453e+01" purity="1.0000000000000000e+00" nType="-99"/>
            <Node pos="r" depth="3" NCoef="0" IVar="-1" Cut="0.0000000000000000e+00" cType="1" res="-8.7537425756454468e-01" rms="3.1737634658813477e+01" purity="1.0000000000000000e+00" nType="-99"/>
          </Node>
          <Node pos="r" depth="2" NCoef="0" IVar="1" Cut="-1.2040215492248535e+01" cType="0" res="-7.7255050659179688e+01" rms="2.0347635269165039e+01" purity="1.0000000000000000e+00" nType="0">
            <Node pos="l" depth="3" NCoef="0" IVar="-1" Cut="0.0000000000000000e+00" cType="1" res="-6.6512328386306763e-01" rms="2.5310037612915039e+01" purity="1.0000000000000000e+00" nType="-99"/>
            <Node pos="r" depth="3" NCoef="0" IVar="-1" Cut="0.0000000000000000e+00" cType="1" res="-1.3650482892990112e+00" rms="1.5225720405578613e+01" purity="1.0000000000000000e+00" nType="-99"/>
          </Node>
        </Node>
      </Node>
    </BinaryTree>
    <BinaryTree type="DecisionTree" boostWeight="1.0000000000000000e+00" itree="6">
      <Node pos="s" depth="0" NCoef="0" IVar="1" Cut="2.8693971633911133e+00" cType="0" res="-7.4807327985763550e-01" rms="7.1511009216308594e+01" purity="1.0000000000000000e+00" nType="0">
        <Node pos="l" depth="1" NCoef="0" IVar="3" Cut="-7.3848251342773438e+01" cType="0" res="4.6994716644287109e+01" rms="5.1471607208251953e+01" purity="1.0000000000000000e+00" nType="0">
          <Node pos="l" depth="2" NCoef="0" IVar="3" Cut="1.7109109878540039e+01" cType="0" res="5.9713489532470703e+01" rms="3.4941429138183594e+01" purity="1.0000000000000000e+00" nType="0">
            <Node pos="l" depth="3" NCoef="0" IVar="-1" Cut="0.0000000000000000e+00" cType="1" res="1.0640236139297485e+00" rms="1.3237680435180664e+01" purity="1.0000000000000000e+00" nType="-99"/>
            <Node pos="r" depth="3" NCoef="0" IVar="-1" Cut="0.0000000000000000e+00" cType="1" res="-2.3787841200828552e-01" rms="4.3694576263427734e+01" purity="1.0000000000000000e+00" nType="-99"/>
          </Node>
          <Node pos="r" depth="2" NCoef="0" IVar="1" Cut="4.3283641815185547e+01" cType="0" res="-6.6148849487304688e+01" rms="3.3403121948242188e+01" purity="1.0000000000000000e+00" nType="0">
            <Node pos="l" depth="3" NCoef="0" IVar="-1" Cut="0.0000000000000000e+00" cType="1" res="-4.0116050839424133e-01" rms="3.6485389709472656e+01" purity="1.0000000000000000e+00" nType="-99"/>
            <Node pos="r" depth="3" NCoef="0" IVar="-1" Cut="0.0000000000000000e+00" cType="1" res="-1.7137789726257324e+00" rms="1.4265926361083984e+01" purity="1.0000000000000000e+00" nType="-99"/>
          </Node>
        </Node>
        <Node pos="r" depth="1" NCoef="0" IVar="3" Cut="7.4559562683105469e+01" cType="0" res="-4.8436122894287109e+01" rms="5.4996242523193359e+01" purity="1.0000000000000000e+00" nType="0">
          <Node pos="l" depth="2" NCoef="0" IVar="1" Cut="-6.3764221191406250e+01" cType="0" res="6.7927719116210938e+01" rms="3.4775787353515625e+01" purity="1.0000000000000000e+00" nType="0">
            <Node pos="l" depth="3" NCoef="0" IVar="-1" Cut="0.0000000000000000e+00" cType="1" res="2.1533498764038086e+00" rms="1.9396287918090820e+01" purity="1.0000000000000000e+00" nType="-99"/>
            <Node pos="r" depth="3" NCoef="0" IVar="-1" Cut="0.0000000000000000e+00" cType="1" res="-3.4567666053771973e-01" rms="3.4026073455810547e+01" purity="1.0000000000000000e+00" nType="-99"/>
          </Node>
          <Node pos="r" depth="2" NCoef="0" IVar="3" Cut="-3.3211585998535156e+01" cType="0" res="-6.3233078002929688e+01" rms="3.6257869720458984e+01" purity="1.0000000000000000e+00" nType="0">
            <Node pos="l" depth="3" NCoef="0" IVar="-1" Cut="0.0000000000000000e+00" cType="1" res="-4.3438145518302917e-01" rms="4.4212234497070312e+01" purity="1.0000000000000000e+00" nType="-99"/>
            <Node pos="r" depth="3" NCoef="0" IVar="-1" Cut="0.0000000000000000e+00" cType="1" res="-1.7200558185577393e+00" rms="9.5052757263183594e+00" purity="1.0000000000000000e+00" nType="-99"/>
          </Node>
        </Node>
      </Node>
    </BinaryTree>
    <BinaryTree type="DecisionTree" boostWeight="1.0000000000000000e+00" itree="7">
      <Node pos="s" depth="0" NCoef="0" IVar="1" Cut="-4.1005887985229492e+00" cType="0" res="7.2147374153137207e+00" rms="7.0568283081054688e+01" purity="1.0000000000000000e+00" nType="0">
        <Node pos="l" depth="1" NCoef="0" IVar="3" Cut="-3.9871162414550781e+01" cType="0" res="5.5229644775390625e+01" rms="4.2400337219238281e+01" purity="1.0000000000000000e+00" nType="0">
          <Node pos="l" depth="2" NCoef="0" IVar="3" Cut="3.6824859619140625e+01" cType="0" res="6.4888877868652344e+01" rms="3.1377367019653320e+01" purity="1.0000000000000000e+00" nType="0">
            <Node pos="l" depth="3" NCoef="0" IVar="-1" Cut="0.0000000000000000e+00" cType="1" res="1.5439066886901855e+00" rms="1.4446038246154785e+01" purity="1.0000000000000000e+00" nType="-99"/>
            <Node pos="r" depth="3" NCoef="0" IVar="-1" Cut="0.0000000000000000e+00" cType="1" res="-1.2901918590068817e-01" rms="3.8124557495117188e+01" purity="1.0000000000000000e+00" nType="-99"/>
          </Node>
          <Node pos="r" depth="2" NCoef="0" IVar="1" Cut="6.3024456024169922e+01" cType="0" res="2.4314162731170654e+00" rms="5.4271907806396484e+01" purity="1.0000000000000000e+00" nType="0">
            <Node pos="l" depth="3" NCoef="0" IVar="-1" Cut="0.0000000000000000e+00" cType="1" res="2.1898640692234039e-01" rms="3.3215927124023438e+01" purity="1.0000000000000000e+00" nType="-99"/>
            <Node pos="r" depth="3" NCoef="0" IVar="-1" Cut="0.0000000000000000e+00" cType="1" res="-5.1953947544097900e-01" rms="3.2073734283447266e+01" purity="1.0000000000000000e+00" nType="-99"/>
          </Node>
        </Node>
        <Node pos="r" depth="1" NCoef="0" IVar="3" Cut="6.5738044738769531e+01" cType="0" res="-5.0642017364501953e+01" rms="5.1853973388671875e+01" purity="1.0000000000000000e+00" nType="0">
          <Node pos="l" depth="2" NCoef="0" IVar="3" Cut="1.1416478729248047e+02" cType="0" res="5.6422500610351562e+01" rms="4.1268928527832031e+01" purity="1.0000000000000000e+00" nType="0">
            <Node pos="l" depth="3" NCoef="0" IVar="-1" Cut="0.0000000000000000e+00" cType="1" res="1.9077239036560059e+00" rms="1.4272929191589355e+01" purity="1.0000000000000000e+00" nType="-99"/>
            <Node pos="r" depth="3" NCoef="0" IVar="-1" Cut="0.0000000000000000e+00" cType="1" res="-8.3072498440742493e-02" rms="3.9330795288085938e+01" purity="1.0000000000000000e+00" nType="-99"/>
          </Node>
          <Node pos="r" depth="2" NCoef="0" IVar="3" Cut="5.9200282096862793e+00" cType="0" res="-6.4162338256835938e+01" rms="3.4394275665283203e+01" purity="1.0000000000000000e+00" nType="0">
            <Node pos="l" depth="3" NCoef="0" IVar="-1" Cut="0.0000000000000000e+00" cType="1" res="-3.5472494363784790e-01" rms="4.3478595733642578e+01" purity="1.0000000000000000e+00" nType="-99"/>
            <Node pos="r" depth="3" NCoef="0" IVar="-1" Cut="0.0000000000000000e+00" cType="1" res="-9.9180757999420166e-01" rms="1.7063894271850586e+01" purity="1.0000000000000000e+00" nType="-99"/>
          </Node>
        </Node>
      </Node>
    </BinaryTree>
    <BinaryTree type="DecisionTree" boostWeight="1.0000000000000000e+00" itree="8">
      <Node pos="s" depth="0" NCoef="0" IVar="1" Cut="-4.1333932876586914e+00" cType="0" res="-2.2179667949676514e+00" rms="7.3546264648437500e+01" purity="1.0000000000000000e+00" nType="0">
        <Node pos="l" depth="1" NCoef="0" IVar="3" Cut="-8.8298919677734375e+01" cType="0" res="4.6484489440917969e+01" rms="5.4975639343261719e+01" purity="1.0000000000000000e+00" nType="0">
          <Node pos="l" depth="2" NCoef="0" IVar="3" Cut="8.7083377838134766e+00" cType="0" res="5.9722492218017578e+01" rms="3.8411544799804688e+01" purity="1.0000000000000000e+00" nType="0">
            <Node pos="l" depth="3" NCoef="0" IVar="-1" Cut="0.0000000000000000e+00" cType="1" res="5.7772970199584961e-01" rms="1.7937246322631836e+01" purity="1.0000000000000000e+00" nType="-99"/>
            <Node pos="r" depth="3" NCoef="0" IVar="-1" Cut="0.0000000000000000e+00" cType="1" res="-2.6125180721282959e-01" rms="4.9735950469970703e+01" purity="1.0000000000000000e+00" nType="-99"/>
          </Node>
          <Node pos="r" depth="2" NCoef="0" IVar="0" Cut="6.0897396087646484e+01" cType="0" res="-7.4417198181152344e+01" rms="3.0530210494995117e+01" purity="1.0000000000000000e+00" nType="0">
            <Node pos="l" depth="3" NCoef="0" IVar="-1" Cut="0.0000000000000000e+00" cType="1" res="-5.1985067129135132e-01" rms="5.1579460144042969e+01" purity="1.0000000000000000e+00" nType="-99"/>
            <Node pos="r" depth="3" NCoef="0" IVar="-1" Cut="0.0000000000000000e+00" cType="1" res="-1.5878430604934692e+00" rms="1.2150756835937500e+01" purity="1.0000000000000000e+00" nType="-99"/>
          </Node>
        </Node>
        <Node pos="r" depth="1" NCoef="0" IVar="3" Cut="6.8613914489746094e+01" cType="0" res="-5.4057064056396484e+01" rms="5.2321285247802734e+01" purity="1.0000000000000000e+00" nType="0">
          <Node pos="l" depth="2" NCoef="0" IVar="3" Cut="1.1856362915039062e+02" cType="0" res="6.7016990661621094e+01" rms="3.1345182418823242e+01" purity="1.0000000000000000e+00" nType="0">
            <Node pos="l" depth="3" NCoef="0" IVar="-1" Cut="0.0000000000000000e+00" cType="1" res="1.8003799915313721e+00" rms="9.5373277664184570e+00" purity="1.0000000000000000e+00" nType="-99"/>
            <Node pos="r" depth="3" NCoef="0" IVar="-1" Cut="0.0000000000000000e+00" cType="1" res="-8.7948672473430634e-02" rms="3.3346508026123047e+01" purity="1.0000000000000000e+00" nType="-99"/>
          </Node>
          <Node pos="r" depth="2" NCoef="0" IVar="3" Cut="7.9577898979187012e+00" cType="0" res="-6.7727699279785156e+01" rms="3.3070087432861328e+01" purity="1.0000000000000000e+00" nType="0">
            <Node pos="l" depth="3" NCoef="0" IVar="-1" Cut="0.0000000000000000e+00" cType="1" res="-2.9436600208282471e-01" rms="4.5921764373779297e+01" purity="1.0000000000000000e+00" nType="-99"/>
            <Node pos="r" depth="3" NCoef="0" IVar="-1" Cut="0.0000000000000000e+00" cType="1" res="-8.5921323299407959e-01" rms="1.5639605522155762e+01" purity="1.0000000000000000e+00" nType="-99"/>
          </Node>
        </Node>
      </Node>
    </BinaryTree>
    <BinaryTree type="DecisionTree" boostWeight="1.0000000000000000e+00" itree="9">
      <Node pos="s" depth="0" NCoef="0" IVar="1" Cut="-4.1333932876586914e+00" cType="0" res="7.1320757865905762e+00" rms="6.8949401855468750e+01" purity="1.0000000000000000e+00" nType="0">
        <Node pos="l" depth="1" NCoef="0" IVar="3" Cut="-7.1281166076660156e+01" cType="0" res="4.6369575500488281e+01" rms="5.0796703338623047e+01" purity="1.0000000000000000e+00" nType="0">
          <Node pos="l" depth="2" NCoef="0" IVar="3" Cut="-3.9901088714599609e+01" cType="0" res="5.9116561889648438e+01" rms="3.4120208740234375e+01" purity="1.0000000000000000e+00" nType="0">
            <Node pos="l" depth="3" NCoef="0" IVar="-1" Cut="0.0000000000000000e+00" cType="1" res="1.3398928940296173e-01" rms="2.7416637420654297e+01" purity="1.0000000000000000e+00" nType="-99"/>
            <Node pos="r" depth="3" NCoef="0" IVar="-1" Cut="0.0000000000000000e+00" cType="1" res="-2.5735363364219666e-01" rms="5.0839412689208984e+01" purity="1.0000000000000000e+00" nType="-99"/>
          </Node>
          <Node pos="r" depth="2" NCoef="0" IVar="1" Cut="5.7093135833740234e+01" cType="0" res="-5.9043430328369141e+01" rms="4.2842510223388672e+01" purity="1.0000000000000000e+00" nType="0">
            <Node pos="l" depth="3" NCoef="0" IVar="-1" Cut="0.0000000000000000e+00" cType="1" res="-2.7779808640480042e-01" rms="4.3708152770996094e+01" purity="1.0000000000000000e+00" nType="-99"/>
            <Node pos="r" depth="3" NCoef="0" IVar="-1" Cut="0.0000000000000000e+00" cType="1" res="-9.0414339303970337e-01" rms="1.8159549713134766e+01" purity="1.0000000000000000e+00" nType="-99"/>
          </Node>
        </Node>
        <Node pos="r" depth="1" NCoef="0" IVar="3" Cut="6.0167629241943359e+01" cType="0" res="-4.8958499908447266e+01" rms="5.0143505096435547e+01" purity="1.0000000000000000e+00" nType="0">
          <Node pos="l" depth="2" NCoef="0" IVar="3" Cut="1.3751724243164062e+02" cType="0" res="5.2919330596923828e+01" rms="3.8966934204101562e+01" purity="1.0000000000000000e+00" nType="0">
            <Node pos="l" depth="3" NCoef="0" IVar="-1" Cut="0.0000000000000000e+00" cType="1" res="2.3095176219940186e+00" rms="8.2697448730468750e+00" purity="1.0000000000000000e+00" nType="-99"/>
            <Node pos="r" depth="3" NCoef="0" IVar="-1" Cut="0.0000000000000000e+00" cType="1" res="-6.8834155797958374e-02" rms="3.3111682891845703e+01" purity="1.0000000000000000e+00" nType="-99"/>
          </Node>
          <Node pos="r" depth="2" NCoef="0" IVar="3" Cut="5.3627605438232422e+00" cType="0" res="-6.2142189025878906e+01" rms="3.3560668945312500e+01" purity="1.0000000000000000e+00" nType="0">
            <Node pos="l" depth="3" NCoef="0" IVar="-1" Cut="0.0000000000000000e+00" cType="1" res="-3.0024266242980957e-01" rms="4.4599643707275391e+01" purity="1.0000000000000000e+00" nType="-99"/>
            <Node pos="r" depth="3" NCoef="0" IVar="-1" Cut="0.0000000000000000e+00" cType="1" res="-8.6580073833465576e-01" rms="1.6482759475708008e+01" purity="1.0000000000000000e+00" nType="-99"/>
          </Node>
        </Node>
      </Node>
    </BinaryTree>
    <BinaryTree type="DecisionTree" boostWeight="1.0000000000000000e+00" itree="10">
      <Node pos="s" depth="0" NCoef="0" IVar="1" Cut="1.2491475343704224e+00" cType="0" res="9.2183647155761719e+00" rms="7.2180603027343750e+01" purity="1.0000000000000000e+00" nType="0">
        <Node pos="l" depth="1" NCoef="0" IVar="3" Cut="-7.4692207336425781e+01" cType="0" res="5.2933963775634766e+01" rms="4.8934555053710938e+01" purity="1.0000000000000000e+00" nType="0">
          <Node pos="l" depth="2" NCoef="0" IVar="3" Cut="-1.8489297866821289e+01" cType="0" res="6.1505569458007812e+01" rms="3.7827705383300781e+01" purity="1.0000000000000000e+00" nType="0">
            <Node pos="l" depth="3" NCoef="0" IVar="-1" Cut="0.0000000000000000e+00" cType="1" res="2.4060823023319244e-01" rms="2.4661396026611328e+01" purity="1.0000000000000000e+00" nType="-99"/>
            <Node pos="r" depth="3" NCoef="0" IVar="-1" Cut="0.0000000000000000e+00" cType="1" res="-2.3918324708938599e-01" rms="5.0337955474853516e+01" purity="1.0000000000000000e+00" nType="-99"/>
          </Node>
          <Node pos="r" depth="2" NCoef="0" IVar="1" Cut="5.3583866119384766e+01" cType="0" res="-5.1839435577392578e+01" rms="4.7938583374023438e+01" purity="1.0000000000000000e+00" nType="0">
            <Node pos="l" depth="3" NCoef="0" IVar="-1" Cut="0.0000000000000000e+00" cType="1" res="-2.8543975949287415e-01" rms="4.5075550079345703e+01" purity="1.0000000000000000e+00" nType="-99"/>
            <Node pos="r" depth="3" NCoef="0" IVar="-1" Cut="0.0000000000000000e+00" cType="1" res="-9.3279451131820679e-01" rms="2.3091548919677734e+01" purity="1.0000000000000000e+00" nType="-99"/>
          </Node>
        </Node>
        <Node pos="r" depth="1" NCoef="0" IVar="3" Cut="5.1021186828613281e+01" cType="0" res="-4.0367332458496094e+01" rms="6.1458396911621094e+01" purity="1.0000000000000000e+00" nType="0">
          <Node pos="l" depth="2" NCoef="0" IVar="3" Cut="1.1938355255126953e+02" cType="0" res="5.7557464599609375e+01" rms="4.0783222198486328e+01" purity="1.0000000000000000e+00" nType="0">
            <Node pos="l" depth="3" NCoef="0" IVar="-1" Cut="0.0000000000000000e+00" cType="1" res="1.2663899660110474e+00" rms="1.2897530555725098e+01" purity="1.0000000000000000e+00" nType="-99"/>
            <Node pos="r" depth="3" NCoef="0" IVar="-1" Cut="0.0000000000000000e+00" cType="1" res="-4.4943425804376602e-02" rms="3.7021732330322266e+01" purity="1.0000000000000000e+00" nType="-99"/>
          </Node>
          <Node pos="r" depth="2" NCoef="0" IVar="1" Cut="-2.5613639831542969e+01" cType="0" res="-6.6226249694824219e+01" rms="3.3681259155273438e+01" purity="1.0000000000000000e+00" nType="0">
            <Node pos="l" depth="3" NCoef="0" IVar="-1" Cut="0.0000000000000000e+00" cType="1" res="-1.5108802914619446e-01" rms="3.7705680847167969e+01" purity="1.0000000000000000e+00" nType="-99"/>
            <Node pos="r" depth="3" NCoef="0" IVar="-1" Cut="0.0000000000000000e+00" cType="1" res="-6.6466754674911499e-01" rms="2.4283365249633789e+01" purity="1.0000000000000000e+00" nType="-99"/>
          </Node>
        </Node>
      </Node>
    </BinaryTree>
    <BinaryTree type="DecisionTree" boostWeight="1.0000000000000000e+00" itree="11">
      <Node pos="s" depth="0" NCoef="0" IVar="3" Cut="-2.9395191192626953e+01" cType="0" res="1.0529040336608887e+01" rms="7.0001449584960938e+01" purity="1.0000000000000000e+00" nType="0">
        <Node pos="l" depth="1" NCoef="0" IVar="1" Cut="-6.9247367858886719e+01" cType="0" res="4.5660820007324219e+01" rms="5.1458110809326172e+01" purity="1.0000000000000000e+00" nType="0">
          <Node pos="l" depth="2" NCoef="0" IVar="1" Cut="-2.4153850972652435e-01" cType="0" res="5.4983776092529297e+01" rms="4.0608238220214844e+01" purity="1.0000000000000000e+00" nType="0">
            <Node pos="l" depth="3" NCoef="0" IVar="-1" Cut="0.0000000000000000e+00" cType="1" res="3.7795174866914749e-02" rms="2.6394201278686523e+01" purity="1.0000000000000000e+00" nType="-99"/>
            <Node pos="r" depth="3" NCoef="0" IVar="-1" Cut="0.0000000000000000e+00" cType="1" res="-1.8240144848823547e-01" rms="4.8897541046142578e+01" purity="1.0000000000000000e+00" nType="-99"/>
          </Node>
          <Node pos="r" depth="2" NCoef="0" IVar="3" Cut="5.0623828887939453e+01" cType="0" res="-6.9411567687988281e+01" rms="2.5746765136718750e+01" purity="1.0000000000000000e+00" nType="0">
            <Node pos="l" depth="3" NCoef="0" IVar="-1" Cut="0.0000000000000000e+00" cType="1" res="-7.2861051559448242e-01" rms="2.5681550979614258e+01" purity="1.0000000000000000e+00" nType="-99"/>
            <Node pos="r" depth="3" NCoef="0" IVar="-1" Cut="0.0000000000000000e+00" cType="1" res="-2.1858057975769043e+00" rms="1.7087905883789062e+01" purity="1.0000000000000000e+00" nType="-99"/>
          </Node>
        </Node>
        <Node pos="r" depth="1" NCoef="0" IVar="1" Cut="4.9877689361572266e+01" cType="0" res="-5.1125709533691406e+01" rms="5.3716678619384766e+01" purity="1.0000000000000000e+00" nType="0">
          <Node pos="l" depth="2" NCoef="0" IVar="1" Cut="9.8626815795898438e+01" cType="0" res="5.3514732360839844e+01" rms="3.6602722167968750e+01" purity="1.0000000000000000e+00" nType="0">
            <Node pos="l" depth="3" NCoef="0" IVar="-1" Cut="0.0000000000000000e+00" cType="1" res="2.6475379467010498e+00" rms="2.0239513397216797e+01" purity="1.0000000000000000e+00" nType="-99"/>
            <Node pos="r" depth="3" NCoef="0" IVar="-1" Cut="0.0000000000000000e+00" cType="1" res="1.6974703967571259e-01" rms="2.9523078918457031e+01" purity="1.0000000000000000e+00" nType="-99"/>
          </Node>
          <Node pos="r" depth="2" NCoef="0" IVar="1" Cut="-5.4365143775939941e+00" cType="0" res="-7.1046485900878906e+01" rms="2.6427068710327148e+01" purity="1.0000000000000000e+00" nType="0">
            <Node pos="l" depth="3" NCoef="0" IVar="-1" Cut="0.0000000000000000e+00" cType="1" res="-4.7467964887619019e-01" rms="3.6639205932617188e+01" purity="1.0000000000000000e+00" nType="-99"/>
            <Node pos="r" depth="3" NCoef="0" IVar="-1" Cut="0.0000000000000000e+00" cType="1" res="-1.4929726123809814e+00" rms="1.2220037460327148e+01" purity="1.0000000000000000e+00" nType="-99"/>
          </Node>
        </Node>
      </Node>
    </BinaryTree>
    <BinaryTree type="DecisionTree" boostWeight="1.0000000000000000e+00" itree="12">
      <Node pos="s" depth="0" NCoef="0" IVar="1" Cut="5.5196553468704224e-01" cType="0" res="1.0442390441894531e+01" rms="6.6728073120117188e+01" purity="1.0000000000000000e+00" nType="0">
        <Node pos="l" depth="1" NCoef="0" IVar="3" Cut="-6.5997779846191406e+01" cType="0" res="5.0444210052490234e+01" rms="4.5489631652832031e+01" purity="1.0000000000000000e+00" nType="0">
          <Node pos="l" depth="2" NCoef="0" IVar="3" Cut="8.1696062088012695e+00" cType="0" res="6.0154090881347656e+01" rms="3.1663045883178711e+01" purity="1.0000000000000000e+00" nType="0">
            <Node pos="l" depth="3" NCoef="0" IVar="-1" Cut="0.0000000000000000e+00" cType="1" res="6.9819492101669312e-01" rms="1.3491597175598145e+01" purity="1.0000000000000000e+00" nType="-99"/>
            <Node pos="r" depth="3" NCoef="0" IVar="-1" Cut="0.0000000000000000e+00" cType="1" res="-1.3485760986804962e-01" rms="4.3742603302001953e+01" purity="1.0000000000000000e+00" nType="-99"/>
          </Node>
          <Node pos="r" depth="2" NCoef="0" IVar="1" Cut="4.9998092651367188e+01" cType="0" res="-4.9246871948242188e+01" rms="4.5993289947509766e+01" purity="1.0000000000000000e+00" nType="0">
            <Node pos="l" depth="3" NCoef="0" IVar="-1" Cut="0.0000000000000000e+00" cType="1" res="-2.0757234096527100e-01" rms="4.1960624694824219e+01" purity="1.0000000000000000e+00" nType="-99"/>
            <Node pos="r" depth="3" NCoef="0" IVar="-1" Cut="0.0000000000000000e+00" cType="1" res="-7.6027232408523560e-01" rms="2.0785737991333008e+01" purity="1.0000000000000000e+00" nType="-99"/>
          </Node>
        </Node>
        <Node pos="r" depth="1" NCoef="0" IVar="3" Cut="6.6278450012207031e+01" cType="0" res="-4.5341968536376953e+01" rms="4.9324710845947266e+01" purity="1.0000000000000000e+00" nType="0">
          <Node pos="l" depth="2" NCoef="0" IVar="3" Cut="1.4749679565429688e+02" cType="0" res="5.6211147308349609e+01" rms="3.5239398956298828e+01" purity="1.0000000000000000e+00" nType="0">
            <Node pos="l" depth="3" NCoef="0" IVar="-1" Cut="0.0000000000000000e+00" cType="1" res="-3.0815494060516357e-01" rms="6.9519224166870117e+00" purity="1.0000000000000000e+00" nType="-99"/>
            <Node pos="r" depth="3" NCoef="0" IVar="-1" Cut="0.0000000000000000e+00" cType="1" res="-5.7850040495395660e-02" rms="3.4766166687011719e+01" purity="1.0000000000000000e+00" nType="-99"/>
          </Node>
          <Node pos="r" depth="2" NCoef="0" IVar="3" Cut="6.3036823272705078e+00" cType="0" res="-5.7631954193115234e+01" rms="3.4321208953857422e+01" purity="1.0000000000000000e+00" nType="0">
            <Node pos="l" depth="3" NCoef="0" IVar="-1" Cut="0.0000000000000000e+00" cType="1" res="-1.7062832415103912e-01" rms="4.1766044616699219e+01" purity="1.0000000000000000e+00" nType="-99"/>
            <Node pos="r" depth="3" NCoef="0" IVar="-1" Cut="0.0000000000000000e+00" cType="1" res="-7.5367265939712524e-01" rms="1.7698877334594727e+01" purity="1.0000000000000000e+00" nType="-99"/>
          </Node>
        </Node>
      </Node>
    </BinaryTree>
    <BinaryTree type="DecisionTree" boostWeight="1.0000000000000000e+00" itree="13">
      <Node pos="s" depth="0" NCoef="0" IVar="1" Cut="-1.2974774837493896e+00" cType="0" res="8.2804937362670898e+00" rms="6.9118499755859375e+01" purity="1.0000000000000000e+00" nType="0">
        <Node pos="l" depth="1" NCoef="0" IVar="3" Cut="-3.6072910308837891e+01" cType="0" res="5.0072856903076172e+01" rms="4.7869842529296875e+01" purity="1.0000000000000000e+00" nType="0">
          <Node pos="l" depth="2" NCoef="0" IVar="3" Cut="2.7474990844726562e+01" cType="0" res="6.6423721313476562e+01" rms="2.6339292526245117e+01" purity="1.0000000000000000e+00" nType="0">
            <Node pos="l" depth="3" NCoef="0" IVar="-1" Cut="0.0000000000000000e+00" cType="1" res="1.2819144725799561e+00" rms="1.3865999221801758e+01" purity="1.0000000000000000e+00" nType="-99"/>
            <Node pos="r" depth="3" NCoef="0" IVar="-1" Cut="0.0000000000000000e+00" cType="1" res="-8.9298568665981293e-02" rms="3.5070415496826172e+01" purity="1.0000000000000000e+00" nType="-99"/>
          </Node>
          <Node pos="r" depth="2" NCoef="0" IVar="3" Cut="-1.2850727844238281e+02" cType="0" res="-3.0435338973999023e+01" rms="4.8586254119873047e+01" purity="1.0000000000000000e+00" nType="0">
            <Node pos="l" depth="3" NCoef="0" IVar="-1" Cut="0.0000000000000000e+00" cType="1" res="-2.1157093346118927e-01" rms="3.9879913330078125e+01" purity="1.0000000000000000e+00" nType="-99"/>
            <Node pos="r" depth="3" NCoef="0" IVar="-1" Cut="0.0000000000000000e+00" cType="1" res="-1.5649001598358154e+00" rms="2.7794347763061523e+01" purity="1.0000000000000000e+00" nType="-99"/>
          </Node>
        </Node>
        <Node pos="r" depth="1" NCoef="0" IVar="3" Cut="6.0167629241943359e+01" cType="0" res="-4.4825691223144531e+01" rms="5.3818847656250000e+01" purity="1.0000000000000000e+00" nType="0">
          <Node pos="l" depth="2" NCoef="0" IVar="3" Cut="1.1817187500000000e+02" cType="0" res="5.8372589111328125e+01" rms="3.8988998413085938e+01" purity="1.0000000000000000e+00" nType="0">
            <Node pos="l" depth="3" NCoef="0" IVar="-1" Cut="0.0000000000000000e+00" cType="1" res="4.1984791755676270e+00" rms="1.1268204689025879e+01" purity="1.0000000000000000e+00" nType="-99"/>
            <Node pos="r" depth="3" NCoef="0" IVar="-1" Cut="0.0000000000000000e+00" cType="1" res="-2.1093446761369705e-02" rms="3.7846351623535156e+01" purity="1.0000000000000000e+00" nType="-99"/>
          </Node>
          <Node pos="r" depth="2" NCoef="0" IVar="3" Cut="5.3601379394531250e+00" cType="0" res="-6.1788913726806641e+01" rms="3.2929866790771484e+01" purity="1.0000000000000000e+00" nType="0">
            <Node pos="l" depth="3" NCoef="0" IVar="-1" Cut="0.0000000000000000e+00" cType="1" res="-1.7045219242572784e-01" rms="4.2564849853515625e+01" purity="1.0000000000000000e+00" nType="-99"/>
            <Node pos="r" depth="3" NCoef="0" IVar="-1" Cut="0.0000000000000000e+00" cType="1" res="-5.7849824428558350e-01" rms="1.7436679840087891e+01" purity="1.0000000000000000e+00" nType="-99"/>
          </Node>
        </Node>
      </Node>
    </BinaryTree>
    <BinaryTree type="DecisionTree" boostWeight="1.0000000000000000e+00" itree="14">
      <Node pos="s" depth="0" NCoef="0" IVar="1" Cut="-1.2848234176635742e+01" cType="0" res="-2.2087647914886475e+00" rms="6.7535903930664062e+01" purity="1.0000000000000000e+00" nType="0">
        <Node pos="l" depth="1" NCoef="0" IVar="3" Cut="-4.7478786468505859e+01" cType="0" res="3.2579647064208984e+01" rms="5.7104408264160156e+01" purity="1.0000000000000000e+00" nType="0">
          <Node pos="l" depth="2" NCoef="0" IVar="3" Cut="7.8268246650695801e+00" cType="0" res="5.6432331085205078e+01" rms="3.3843406677246094e+01" purity="1.0000000000000000e+00" nType="0">
            <Node pos="l" depth="3" NCoef="0" IVar="-1" Cut="0.0000000000000000e+00" cType="1" res="4.4215756654739380e-01" rms="1.9025230407714844e+01" purity="1.0000000000000000e+00" nType="-99"/>
            <Node pos="r" depth="3" NCoef="0" IVar="-1" Cut="0.0000000000000000e+00" cType="1" res="-1.4010164141654968e-01" rms="4.4106620788574219e+01" purity="1.0000000000000000e+00" nType="-99"/>
          </Node>
          <Node pos="r" depth="2" NCoef="0" IVar="1" Cut="5.9324008941650391e+01" cType="0" res="-5.2995510101318359e+01" rms="3.8554157257080078e+01" purity="1.0000000000000000e+00" nType="0">
            <Node pos="l" depth="3" NCoef="0" IVar="-1" Cut="0.0000000000000000e+00" cType="1" res="7.2808288037776947e-02" rms="3.5899581909179688e+01" purity="1.0000000000000000e+00" nType="-99"/>
            <Node pos="r" depth="3" NCoef="0" IVar="-1" Cut="0.0000000000000000e+00" cType="1" res="-5.2760469913482666e-01" rms="2.6868371963500977e+01" purity="1.0000000000000000e+00" nType="-99"/>
          </Node>
        </Node>
        <Node pos="r" depth="1" NCoef="0" IVar="3" Cut="6.6066184997558594e+01" cType="0" res="-4.4588119506835938e+01" rms="5.3615928649902344e+01" purity="1.0000000000000000e+00" nType="0">
          <Node pos="l" depth="2" NCoef="0" IVar="3" Cut="1.1578608703613281e+02" cType="0" res="6.3616519927978516e+01" rms="2.9640453338623047e+01" purity="1.0000000000000000e+00" nType="0">
            <Node pos="l" depth="3" NCoef="0" IVar="-1" Cut="0.0000000000000000e+00" cType="1" res="1.5831975936889648e+00" rms="1.0072327613830566e+01" purity="1.0000000000000000e+00" nType="-99"/>
            <Node pos="r" depth="3" NCoef="0" IVar="-1" Cut="0.0000000000000000e+00" cType="1" res="-6.8732775747776031e-02" rms="3.1366594314575195e+01" purity="1.0000000000000000e+00" nType="-99"/>
          </Node>
          <Node pos="r" depth="2" NCoef="0" IVar="3" Cut="6.1538658142089844e+00" cType="0" res="-6.3715377807617188e+01" rms="2.8142646789550781e+01" purity="1.0000000000000000e+00" nType="0">
            <Node pos="l" depth="3" NCoef="0" IVar="-1" Cut="0.0000000000000000e+00" cType="1" res="-2.4240252375602722e-01" rms="3.9772861480712891e+01" purity="1.0000000000000000e+00" nType="-99"/>
            <Node pos="r" depth="3" NCoef="0" IVar="-1" Cut="0.0000000000000000e+00" cType="1" res="-8.5898733139038086e-01" rms="1.2858766555786133e+01" purity="1.0000000000000000e+00" nType="-99"/>
          </Node>
        </Node>
      </Node>
    </BinaryTree>
    <BinaryTree type="DecisionTree" boostWeight="1.0000000000000000e+00" itree="15">
      <Node pos="s" depth="0" NCoef="0" IVar="1" Cut="-1.5049388885498047e+01" cType="0" res="4.7592792510986328e+00" rms="6.9697921752929688e+01" purity="1.0000000000000000e+00" nType="0">
        <Node pos="l" depth="1" NCoef="0" IVar="3" Cut="-7.3567070007324219e+01" cType="0" res="4.2589229583740234e+01" rms="5.4332214355468750e+01" purity="1.0000000000000000e+00" nType="0">
          <Node pos="l" depth="2" NCoef="0" IVar="3" Cut="1.0288128852844238e+01" cType="0" res="5.6929840087890625e+01" rms="3.7339813232421875e+01" purity="1.0000000000000000e+00" nType="0">
            <Node pos="l" depth="3" NCoef="0" IVar="-1" Cut="0.0000000000000000e+00" cType="1" res="4.5036289095878601e-01" rms="1.9513360977172852e+01" purity="1.0000000000000000e+00" nType="-99"/>
            <Node pos="r" depth="3" NCoef="0" IVar="-1" Cut="0.0000000000000000e+00" cType="1" res="-1.2004067748785019e-01" rms="4.8376064300537109e+01" purity="1.0000000000000000e+00" nType="-99"/>
          </Node>
          <Node pos="r" depth="2" NCoef="0" IVar="0" Cut="5.8313381195068359e+01" cType="0" res="-6.8095420837402344e+01" rms="3.3713081359863281e+01" purity="1.0000000000000000e+00" nType="0">
            <Node pos="l" depth="3" NCoef="0" IVar="-1" Cut="0.0000000000000000e+00" cType="1" res="-2.0850974321365356e-01" rms="4.1067317962646484e+01" purity="1.0000000000000000e+00" nType="-99"/>
            <Node pos="r" depth="3" NCoef="0" IVar="-1" Cut="0.0000000000000000e+00" cType="1" res="-8.3835512399673462e-01" rms="1.4884610176086426e+01" purity="1.0000000000000000e+00" nType="-99"/>
          </Node>
        </Node>
        <Node pos="r" depth="1" NCoef="0" IVar="3" Cut="8.5508186340332031e+01" cType="0" res="-5.2892787933349609e+01" rms="4.7512950897216797e+01" purity="1.0000000000000000e+00" nType="0">
          <Node pos="l" depth="2" NCoef="0" IVar="1" Cut="-5.4736061096191406e+01" cType="0" res="6.7122978210449219e+01" rms="2.4887613296508789e+01" purity="1.0000000000000000e+00" nType="0">
            <Node pos="l" depth="3" NCoef="0" IVar="-1" Cut="0.0000000000000000e+00" cType="1" res="7.7625727653503418e-01" rms="1.5054701805114746e+01" purity="1.0000000000000000e+00" nType="-99"/>
            <Node pos="r" depth="3" NCoef="0" IVar="-1" Cut="0.0000000000000000e+00" cType="1" res="-1.8463429808616638e-01" rms="3.1368526458740234e+01" purity="1.0000000000000000e+00" nType="-99"/>
          </Node>
          <Node pos="r" depth="2" NCoef="0" IVar="3" Cut="2.4287866592407227e+01" cType="0" res="-6.3702571868896484e+01" rms="3.1477401733398438e+01" purity="1.0000000000000000e+00" nType="0">
            <Node pos="l" depth="3" NCoef="0" IVar="-1" Cut="0.0000000000000000e+00" cType="1" res="-1.2549985945224762e-01" rms="4.2668800354003906e+01" purity="1.0000000000000000e+00" nType="-99"/>
            <Node pos="r" depth="3" NCoef="0" IVar="-1" Cut="0.0000000000000000e+00" cType="1" res="-6.9775128364562988e-01" rms="1.7875673294067383e+01" purity="1.0000000000000000e+00" nType="-99"/>
          </Node>
        </Node>
      </Node>
    </BinaryTree>
    <BinaryTree type="DecisionTree" boostWeight="1.0000000000000000e+00" itree="16">
      <Node pos="s" depth="0" NCoef="0" IVar="1" Cut="-4.1005887985229492e+00" cType="0" res="-3.7027108669281006e+00" rms="7.0851150512695312e+01" purity="1.0000000000000000e+00" nType="0">
        <Node pos="l" depth="1" NCoef="0" IVar="3" Cut="-3.9871162414550781e+01" cType="0" res="4.8207752227783203e+01" rms="5.1422943115234375e+01" purity="1.0000000000000000e+00" nType="0">
          <Node pos="l" depth="2" NCoef="0" IVar="3" Cut="3.6823692321777344e+01" cType="0" res="6.5835197448730469e+01" rms="3.0845905303955078e+01" purity="1.0000000000000000e+00" nType="0">
            <Node pos="l" depth="3" NCoef="0" IVar="-1" Cut="0.0000000000000000e+00" cType="1" res="1.5833154916763306e+00" rms="1.5659327507019043e+01" purity="1.0000000000000000e+00" nType="-99"/>
            <Node pos="r" depth="3" NCoef="0" IVar="-1" Cut="0.0000000000000000e+00" cType="1" res="-7.6964326202869415e-02" rms="3.7945507049560547e+01" purity="1.0000000000000000e+00" nType="-99"/>
          </Node>
          <Node pos="r" depth="2" NCoef="0" IVar="3" Cut="-1.0435179138183594e+02" cType="0" res="-3.3170040130615234e+01" rms="4.9016292572021484e+01" purity="1.0000000000000000e+00" nType="0">
            <Node pos="l" depth="3" NCoef="0" IVar="-1" Cut="0.0000000000000000e+00" cType="1" res="-1.1588957160711288e-01" rms="3.8964229583740234e+01" purity="1.0000000000000000e+00" nType="-99"/>
            <Node pos="r" depth="3" NCoef="0" IVar="-1" Cut="0.0000000000000000e+00" cType="1" res="-7.3844361305236816e-01" rms="2.5037160873413086e+01" purity="1.0000000000000000e+00" nType="-99"/>
          </Node>
        </Node>
        <Node pos="r" depth="1" NCoef="0" IVar="3" Cut="1.0488957405090332e+01" cType="0" res="-5.6687149047851562e+01" rms="4.3437324523925781e+01" purity="1.0000000000000000e+00" nType="0">
          <Node pos="l" depth="2" NCoef="0" IVar="1" Cut="-6.5236625671386719e+01" cType="0" res="-1.6883708953857422e+01" rms="5.3026855468750000e+01" purity="1.0000000000000000e+00" nType="0">
            <Node pos="l" depth="3" NCoef="0" IVar="-1" Cut="0.0000000000000000e+00" cType="1" res="-3.3305916935205460e-02" rms="3.7663654327392578e+01" purity="1.0000000000000000e+00" nType="-99"/>
            <Node pos="r" depth="3" NCoef="0" IVar="-1" Cut="0.0000000000000000e+00" cType="1" res="-8.3776783943176270e-01" rms="2.4154130935668945e+01" purity="1.0000000000000000e+00" nType="-99"/>
          </Node>
          <Node pos="r" depth="2" NCoef="0" IVar="1" Cut="-6.7292388916015625e+01" cType="0" res="-7.5278739929199219e+01" rms="1.9211191177368164e+01" purity="1.0000000000000000e+00" nType="0">
            <Node pos="l" depth="3" NCoef="0" IVar="-1" Cut="0.0000000000000000e+00" cType="1" res="-3.5280162096023560e-01" rms="2.0544927597045898e+01" purity="1.0000000000000000e+00" nType="-99"/>
            <Node pos="r" depth="3" NCoef="0" IVar="-1" Cut="0.0000000000000000e+00" cType="1" res="-7.1709065437316895e+00" rms="7.2332525253295898e+00" purity="1.0000000000000000e+00" nType="-99"/>
          </Node>
        </Node>
      </Node>
    </BinaryTree>
    <BinaryTree type="DecisionTree" boostWeight="1.0000000000000000e+00" itree="17">
      <Node pos="s" depth="0" NCoef="0" IVar="3" Cut="-2.9395191192626953e+01" cType="0" res="-8.1078538894653320e+00" rms="6.8661621093750000e+01" purity="1.0000000000000000e+00" nType="0">
        <Node pos="l" depth="1" NCoef="0" IVar="1" Cut="-2.4110555648803711e+00" cType="0" res="3.0180740356445312e+01" rms="6.0562992095947266e+01" purity="1.0000000000000000e+00" nType="0">
          <Node pos="l" depth="2" NCoef="0" IVar="3" Cut="4.8468494415283203e+01" cType="0" res="6.6051643371582031e+01" rms="2.7546005249023438e+01" purity="1.0000000000000000e+00" nType="0">
            <Node pos="l" depth="3" NCoef="0" IVar="-1" Cut="0.0000000000000000e+00" cType="1" res="2.0842072963714600e+00" rms="1.2602553367614746e+01" purity="1.0000000000000000e+00" nType="-99"/>
            <Node pos="r" depth="3" NCoef="0" IVar="-1" Cut="0.0000000000000000e+00" cType="1" res="-3.0710352584719658e-02" rms="3.4434543609619141e+01" purity="1.0000000000000000e+00" nType="-99"/>
          </Node>
          <Node pos="r" depth="2" NCoef="0" IVar="3" Cut="5.9739948272705078e+01" cType="0" res="-1.8406894683837891e+01" rms="5.9200019836425781e+01" purity="1.0000000000000000e+00" nType="0">
            <Node pos="l" depth="3" NCoef="0" IVar="-1" Cut="0.0000000000000000e+00" cType="1" res="7.7820146083831787e-01" rms="3.6845218658447266e+01" purity="1.0000000000000000e+00" nType="-99"/>
            <Node pos="r" depth="3" NCoef="0" IVar="-1" Cut="0.0000000000000000e+00" cType="1" res="-1.7985960841178894e-01" rms="3.9014293670654297e+01" purity="1.0000000000000000e+00" nType="-99"/>
          </Node>
        </Node>
        <Node pos="r" depth="1" NCoef="0" IVar="1" Cut="5.7606937408447266e+01" cType="0" res="-6.2175823211669922e+01" rms="3.4622619628906250e+01" purity="1.0000000000000000e+00" nType="0">
          <Node pos="l" depth="2" NCoef="0" IVar="3" Cut="-1.1789454650878906e+02" cType="0" res="3.1021194458007812e+01" rms="3.1836936950683594e+01" purity="1.0000000000000000e+00" nType="0">
            <Node pos="l" depth="3" NCoef="0" IVar="-1" Cut="0.0000000000000000e+00" cType="1" res="3.1882226467132568e-01" rms="2.7800346374511719e+01" purity="1.0000000000000000e+00" nType="-99"/>
            <Node pos="r" depth="3" NCoef="0" IVar="-1" Cut="0.0000000000000000e+00" cType="1" res="-7.6286977529525757e-01" rms="2.2365772247314453e+01" purity="1.0000000000000000e+00" nType="-99"/>
          </Node>
          <Node pos="r" depth="2" NCoef="0" IVar="1" Cut="-5.3345971107482910e+00" cType="0" res="-6.8332977294921875e+01" rms="2.4478937149047852e+01" purity="1.0000000000000000e+00" nType="0">
            <Node pos="l" depth="3" NCoef="0" IVar="-1" Cut="0.0000000000000000e+00" cType="1" res="-3.0093836784362793e-01" rms="3.8149913787841797e+01" purity="1.0000000000000000e+00" nType="-99"/>
            <Node pos="r" depth="3" NCoef="0" IVar="-1" Cut="0.0000000000000000e+00" cType="1" res="-1.2423897981643677e+00" rms="9.9571857452392578e+00" purity="1.0000000000000000e+00" nType="-99"/>
          </Node>
        </Node>
      </Node>
    </BinaryTree>
    <BinaryTree type="DecisionTree" boostWeight="1.0000000000000000e+00" itree="18">
      <Node pos="s" depth="0" NCoef="0" IVar="1" Cut="7.6968579292297363e+00" cType="0" res="-8.1790189743041992e+00" rms="6.5668693542480469e+01" purity="1.0000000000000000e+00" nType="0">
        <Node pos="l" depth="1" NCoef="0" IVar="3" Cut="1.1426347732543945e+01" cType="0" res="4.9608032226562500e+01" rms="4.0195915222167969e+01" purity="1.0000000000000000e+00" nType="0">
          <Node pos="l" depth="2" NCoef="0" IVar="0" Cut="3.1977716445922852e+01" cType="0" res="6.7257392883300781e+01" rms="1.6280471801757812e+01" purity="1.0000000000000000e+00" nType="0">
            <Node pos="l" depth="3" NCoef="0" IVar="-1" Cut="0.0000000000000000e+00" cType="1" res="1.1317814588546753e+00" rms="1.4931542396545410e+01" purity="1.0000000000000000e+00" nType="-99"/>
            <Node pos="r" depth="3" NCoef="0" IVar="-1" Cut="0.0000000000000000e+00" cType="1" res="1.7042458057403564e-01" rms="1.2147868156433105e+01" purity="1.0000000000000000e+00" nType="-99"/>
          </Node>
          <Node pos="r" depth="2" NCoef="0" IVar="1" Cut="6.3756755828857422e+01" cType="0" res="3.1396381378173828e+01" rms="4.8541858673095703e+01" purity="1.0000000000000000e+00" nType="0">
            <Node pos="l" depth="3" NCoef="0" IVar="-1" Cut="0.0000000000000000e+00" cType="1" res="6.8251389265060425e-01" rms="2.3472623825073242e+01" purity="1.0000000000000000e+00" nType="-99"/>
            <Node pos="r" depth="3" NCoef="0" IVar="-1" Cut="0.0000000000000000e+00" cType="1" res="-9.5494531095027924e-02" rms="3.8209220886230469e+01" purity="1.0000000000000000e+00" nType="-99"/>
          </Node>
        </Node>
        <Node pos="r" depth="1" NCoef="0" IVar="3" Cut="5.9443244934082031e+01" cType="0" res="-4.5816928863525391e+01" rms="4.9771224975585938e+01" purity="1.0000000000000000e+00" nType="0">
          <Node pos="l" depth="2" NCoef="0" IVar="1" Cut="-5.3124309539794922e+01" cType="0" res="3.3903720855712891e+01" rms="5.7657756805419922e+01" purity="1.0000000000000000e+00" nType="0">
            <Node pos="l" depth="3" NCoef="0" IVar="-1" Cut="0.0000000000000000e+00" cType="1" res="1.0673929452896118e+00" rms="2.2310691833496094e+01" purity="1.0000000000000000e+00" nType="-99"/>
            <Node pos="r" depth="3" NCoef="0" IVar="-1" Cut="0.0000000000000000e+00" cType="1" res="-3.3857318758964539e-01" rms="3.9805450439453125e+01" purity="1.0000000000000000e+00" nType="-99"/>
          </Node>
          <Node pos="r" depth="2" NCoef="0" IVar="3" Cut="-2.6379266738891602e+01" cType="0" res="-5.9712318420410156e+01" rms="3.2072860717773438e+01" purity="1.0000000000000000e+00" nType="0">
            <Node pos="l" depth="3" NCoef="0" IVar="-1" Cut="0.0000000000000000e+00" cType="1" res="-1.5925164520740509e-01" rms="4.2649799346923828e+01" purity="1.0000000000000000e+00" nType="-99"/>
            <Node pos="r" depth="3" NCoef="0" IVar="-1" Cut="0.0000000000000000e+00" cType="1" res="-9.8427325487136841e-01" rms="1.1943264961242676e+01" purity="1.0000000000000000e+00" nType="-99"/>
          </Node>
        </Node>
      </Node>
    </BinaryTree>
    <BinaryTree type="DecisionTree" boostWeight="1.0000000000000000e+00" itree="19">
      <Node pos="s" depth="0" NCoef="0" IVar="1" Cut="7.6968579292297363e+00" cType="0" res="-8.0438834428787231e-01" rms="6.5506538391113281e+01" purity="1.0000000000000000e+00" nType="0">
        <Node pos="l" depth="1" NCoef="0" IVar="3" Cut="-9.2124397277832031e+01" cType="0" res="4.5655960083007812e+01" rms="4.7091926574707031e+01" purity="1.0000000000000000e+00" nType="0">
          <Node pos="l" depth="2" NCoef="0" IVar="3" Cut="-3.8997280120849609e+01" cType="0" res="5.4939666748046875e+01" rms="3.4564193725585938e+01" purity="1.0000000000000000e+00" nType="0">
            <Node pos="l" depth="3" NCoef="0" IVar="-1" Cut="0.0000000000000000e+00" cType="1" res="2.0555561780929565e-01" rms="2.4583671569824219e+01" purity="1.0000000000000000e+00" nType="-99"/>
            <Node pos="r" depth="3" NCoef="0" IVar="-1" Cut="0.0000000000000000e+00" cType="1" res="-1.0101633518934250e-01" rms="4.9342510223388672e+01" purity="1.0000000000000000e+00" nType="-99"/>
          </Node>
          <Node pos="r" depth="2" NCoef="0" IVar="1" Cut="4.7818737030029297e+01" cType="0" res="-6.6873954772949219e+01" rms="3.0159193038940430e+01" purity="1.0000000000000000e+00" nType="0">
            <Node pos="l" depth="3" NCoef="0" IVar="-1" Cut="0.0000000000000000e+00" cType="1" res="-4.6325895190238953e-01" rms="4.7777782440185547e+01" purity="1.0000000000000000e+00" nType="-99"/>
            <Node pos="r" depth="3" NCoef="0" IVar="-1" Cut="0.0000000000000000e+00" cType="1" res="-7.9426360130310059e-01" rms="1.0023416519165039e+01" purity="1.0000000000000000e+00" nType="-99"/>
          </Node>
        </Node>
        <Node pos="r" depth="1" NCoef="0" IVar="3" Cut="6.3239704132080078e+01" cType="0" res="-4.7678558349609375e+01" rms="4.4811305999755859e+01" purity="1.0000000000000000e+00" nType="0">
          <Node pos="l" depth="2" NCoef="0" IVar="1" Cut="-5.2489437103271484e+01" cType="0" res="4.1788658142089844e+01" rms="4.2175579071044922e+01" purity="1.0000000000000000e+00" nType="0">
            <Node pos="l" depth="3" NCoef="0" IVar="-1" Cut="0.0000000000000000e+00" cType="1" res="3.5567040443420410e+00" rms="2.7547185897827148e+01" purity="1.0000000000000000e+00" nType="-99"/>
            <Node pos="r" depth="3" NCoef="0" IVar="-1" Cut="0.0000000000000000e+00" cType="1" res="-3.1016698479652405e-01" rms="3.1989231109619141e+01" purity="1.0000000000000000e+00" nType="-99"/>
          </Node>
          <Node pos="r" depth="2" NCoef="0" IVar="3" Cut="-1.6009531021118164e+01" cType="0" res="-5.5475738525390625e+01" rms="3.5632099151611328e+01" purity="1.0000000000000000e+00" nType="0">
            <Node pos="l" depth="3" NCoef="0" IVar="-1" Cut="0.0000000000000000e+00" cType="1" res="-1.1122630536556244e-01" rms="4.3176998138427734e+01" purity="1.0000000000000000e+00" nType="-99"/>
            <Node pos="r" depth="3" NCoef="0" IVar="-1" Cut="0.0000000000000000e+00" cType="1" res="-7.9405677318572998e-01" rms="1.6216396331787109e+01" purity="1.0000000000000000e+00" nType="-99"/>
          </Node>
        </Node>
      </Node>
    </BinaryTree>
    <BinaryTree type="DecisionTree" boostWeight="1.0000000000000000e+00" itree="20">
      <Node pos="s" depth="0" NCoef="0" IVar="1" Cut="-1.1221079826354980e+01" cType="0" res="5.5790042877197266e+00" rms="6.6828125000000000e+01" purity="1.0000000000000000e+00" nType="0">
        <Node pos="l" depth="1" NCoef="0" IVar="3" Cut="-6.5620964050292969e+01" cType="0" res="3.9896816253662109e+01" rms="5.2968017578125000e+01" purity="1.0000000000000000e+00" nType="0">
          <Node pos="l" depth="2" NCoef="0" IVar="3" Cut="1.1641127586364746e+01" cType="0" res="5.5425956726074219e+01" rms="3.4936672210693359e+01" purity="1.0000000000000000e+00" nType="0">
            <Node pos="l" depth="3" NCoef="0" IVar="-1" Cut="0.0000000000000000e+00" cType="1" res="3.5551089048385620e-01" rms="1.8075037002563477e+01" purity="1.0000000000000000e+00" nType="-99"/>
            <Node pos="r" depth="3" NCoef="0" IVar="-1" Cut="0.0000000000000000e+00" cType="1" res="-7.1901060640811920e-02" rms="4.6832431793212891e+01" purity="1.0000000000000000e+00" nType="-99"/>
          </Node>
          <Node pos="r" depth="2" NCoef="0" IVar="3" Cut="-1.0805690002441406e+02" cType="0" res="-6.5434936523437500e+01" rms="2.8743762969970703e+01" purity="1.0000000000000000e+00" nType="0">
            <Node pos="l" depth="3" NCoef="0" IVar="-1" Cut="0.0000000000000000e+00" cType="1" res="-2.5445896387100220e-01" rms="3.1990367889404297e+01" purity="1.0000000000000000e+00" nType="-99"/>
            <Node pos="r" depth="3" NCoef="0" IVar="-1" Cut="0.0000000000000000e+00" cType="1" res="-1.1054167747497559e+00" rms="1.1923560142517090e+01" purity="1.0000000000000000e+00" nType="-99"/>
          </Node>
        </Node>
        <Node pos="r" depth="1" NCoef="0" IVar="3" Cut="6.8283493041992188e+01" cType="0" res="-4.8040885925292969e+01" rms="4.8425842285156250e+01" purity="1.0000000000000000e+00" nType="0">
          <Node pos="l" depth="2" NCoef="0" IVar="3" Cut="1.4527154541015625e+02" cType="0" res="5.7022819519042969e+01" rms="3.2882591247558594e+01" purity="1.0000000000000000e+00" nType="0">
            <Node pos="l" depth="3" NCoef="0" IVar="-1" Cut="0.0000000000000000e+00" cType="1" res="-4.5460996031761169e-01" rms="7.4871172904968262e+00" purity="1.0000000000000000e+00" nType="-99"/>
            <Node pos="r" depth="3" NCoef="0" IVar="-1" Cut="0.0000000000000000e+00" cType="1" res="-1.8038827180862427e-01" rms="2.9062206268310547e+01" purity="1.0000000000000000e+00" nType="-99"/>
          </Node>
          <Node pos="r" depth="2" NCoef="0" IVar="3" Cut="-1.9700725555419922e+01" cType="0" res="-6.0315399169921875e+01" rms="3.2441345214843750e+01" purity="1.0000000000000000e+00" nType="0">
            <Node pos="l" depth="3" NCoef="0" IVar="-1" Cut="0.0000000000000000e+00" cType="1" res="-1.5018486976623535e-01" rms="4.1226902008056641e+01" purity="1.0000000000000000e+00" nType="-99"/>
            <Node pos="r" depth="3" NCoef="0" IVar="-1" Cut="0.0000000000000000e+00" cType="1" res="-1.1125441789627075e+00" rms="1.2364814758300781e+01" purity="1.0000000000000000e+00" nType="-99"/>
          </Node>
        </Node>
      </Node>
    </BinaryTree>
    <BinaryTree type="DecisionTree" boostWeight="1.0000000000000000e+00" itree="21">
      <Node pos="s" depth="0" NCoef="0" IVar="1" Cut="-3.6531169891357422e+01" cType="0" res="-4.1673259735107422e+00" rms="6.6591697692871094e+01" purity="1.0000000000000000e+00" nType="0">
        <Node pos="l" depth="1" NCoef="0" IVar="3" Cut="-3.5723503112792969e+01" cType="0" res="3.3430046081542969e+01" rms="5.3396244049072266e+01" purity="1.0000000000000000e+00" nType="0">
          <Node pos="l" depth="2" NCoef="0" IVar="1" Cut="8.8853073120117188e+00" cType="0" res="5.2861736297607422e+01" rms="3.5145446777343750e+01" purity="1.0000000000000000e+00" nType="0">
            <Node pos="l" depth="3" NCoef="0" IVar="-1" Cut="0.0000000000000000e+00" cType="1" res="1.8136644363403320e-01" rms="2.5266195297241211e+01" purity="1.0000000000000000e+00" nType="-99"/>
            <Node pos="r" depth="3" NCoef="0" IVar="-1" Cut="0.0000000000000000e+00" cType="1" res="-1.0972140356898308e-02" rms="4.0838874816894531e+01" purity="1.0000000000000000e+00" nType="-99"/>
          </Node>
          <Node pos="r" depth="2" NCoef="0" IVar="1" Cut="5.1363193511962891e+01" cType="0" res="-1.9161600112915039e+01" rms="5.8625083923339844e+01" purity="1.0000000000000000e+00" nType="0">
            <Node pos="l" depth="3" NCoef="0" IVar="-1" Cut="0.0000000000000000e+00" cType="1" res="4.1008642315864563e-01" rms="3.4129642486572266e+01" purity="1.0000000000000000e+00" nType="-99"/>
            <Node pos="r" depth="3" NCoef="0" IVar="-1" Cut="0.0000000000000000e+00" cType="1" res="-2.7434307336807251e-01" rms="3.0977695465087891e+01" purity="1.0000000000000000e+00" nType="-99"/>
          </Node>
        </Node>
        <Node pos="r" depth="1" NCoef="0" IVar="0" Cut="7.6826644897460938e+01" cType="0" res="-6.8451072692871094e+01" rms="2.4336456298828125e+01" purity="1.0000000000000000e+00" nType="0">
          <Node pos="l" depth="2" NCoef="0" IVar="3" Cut="6.5762527465820312e+01" cType="0" res="-7.6713081359863281e+01" rms="1.4901886940002441e+01" purity="1.0000000000000000e+00" nType="0">
            <Node pos="l" depth="3" NCoef="0" IVar="-1" Cut="0.0000000000000000e+00" cType="1" res="-4.1154199838638306e-01" rms="3.2991809844970703e+01" purity="1.0000000000000000e+00" nType="-99"/>
            <Node pos="r" depth="3" NCoef="0" IVar="-1" Cut="0.0000000000000000e+00" cType="1" res="-1.5295987129211426e+00" rms="1.2139953613281250e+01" purity="1.0000000000000000e+00" nType="-99"/>
          </Node>
          <Node pos="r" depth="2" NCoef="0" IVar="3" Cut="3.3709751129150391e+01" cType="0" res="-5.2759544372558594e+01" rms="3.0323064804077148e+01" purity="1.0000000000000000e+00" nType="0">
            <Node pos="l" depth="3" NCoef="0" IVar="-1" Cut="0.0000000000000000e+00" cType="1" res="-1.7266000807285309e-01" rms="2.8794036865234375e+01" purity="1.0000000000000000e+00" nType="-99"/>
            <Node pos="r" depth="3" NCoef="0" IVar="-1" Cut="0.0000000000000000e+00" cType="1" res="-7.8662252426147461e-01" rms="1.6085027694702148e+01" purity="1.0000000000000000e+00" nType="-99"/>
          </Node>
        </Node>
      </Node>
    </BinaryTree>
    <BinaryTree type="DecisionTree" boostWeight="1.0000000000000000e+00" itree="22">
      <Node pos="s" depth="0" NCoef="0" IVar="1" Cut="1.2491475343704224e+00" cType="0" res="-5.0319099426269531e-01" rms="6.4406982421875000e+01" purity="1.0000000000000000e+00" nType="0">
        <Node pos="l" depth="1" NCoef="0" IVar="3" Cut="-7.2844909667968750e+01" cType="0" res="4.2650402069091797e+01" rms="4.8484859466552734e+01" purity="1.0000000000000000e+00" nType="0">
          <Node pos="l" depth="2" NCoef="0" IVar="3" Cut="-3.5467227935791016e+01" cType="0" res="5.3799400329589844e+01" rms="3.5216979980468750e+01" purity="1.0000000000000000e+00" nType="0">
            <Node pos="l" depth="3" NCoef="0" IVar="-1" Cut="0.0000000000000000e+00" cType="1" res="2.3330949246883392e-01" rms="2.6546768188476562e+01" purity="1.0000000000000000e+00" nType="-99"/>
            <Node pos="r" depth="3" NCoef="0" IVar="-1" Cut="0.0000000000000000e+00" cType="1" res="-6.1931047588586807e-02" rms="4.8288166046142578e+01" purity="1.0000000000000000e+00" nType="-99"/>
          </Node>
          <Node pos="r" depth="2" NCoef="0" IVar="3" Cut="-1.1935186004638672e+02" cType="0" res="-6.0536579132080078e+01" rms="2.8830551147460938e+01" purity="1.0000000000000000e+00" nType="0">
            <Node pos="l" depth="3" NCoef="0" IVar="-1" Cut="0.0000000000000000e+00" cType="1" res="-2.7235102653503418e-01" rms="3.0534603118896484e+01" purity="1.0000000000000000e+00" nType="-99"/>
            <Node pos="r" depth="3" NCoef="0" IVar="-1" Cut="0.0000000000000000e+00" cType="1" res="-1.0076174736022949e+00" rms="8.9431085586547852e+00" purity="1.0000000000000000e+00" nType="-99"/>
          </Node>
        </Node>
        <Node pos="r" depth="1" NCoef="0" IVar="3" Cut="6.5738044738769531e+01" cType="0" res="-4.2819202423095703e+01" rms="4.7896934509277344e+01" purity="1.0000000000000000e+00" nType="0">
          <Node pos="l" depth="2" NCoef="0" IVar="3" Cut="1.1416584014892578e+02" cType="0" res="5.3619308471679688e+01" rms="3.4370983123779297e+01" purity="1.0000000000000000e+00" nType="0">
            <Node pos="l" depth="3" NCoef="0" IVar="-1" Cut="0.0000000000000000e+00" cType="1" res="9.9181592464447021e-01" rms="1.3011448860168457e+01" purity="1.0000000000000000e+00" nType="-99"/>
            <Node pos="r" depth="3" NCoef="0" IVar="-1" Cut="0.0000000000000000e+00" cType="1" res="-2.1033450961112976e-01" rms="3.6577785491943359e+01" purity="1.0000000000000000e+00" nType="-99"/>
          </Node>
          <Node pos="r" depth="2" NCoef="0" IVar="3" Cut="5.9204125404357910e+00" cType="0" res="-5.5608486175537109e+01" rms="3.2322441101074219e+01" purity="1.0000000000000000e+00" nType="0">
            <Node pos="l" depth="3" NCoef="0" IVar="-1" Cut="0.0000000000000000e+00" cType="1" res="-5.0354983657598495e-02" rms="4.3228713989257812e+01" purity="1.0000000000000000e+00" nType="-99"/>
            <Node pos="r" depth="3" NCoef="0" IVar="-1" Cut="0.0000000000000000e+00" cType="1" res="-3.3175811171531677e-01" rms="1.6694280624389648e+01" purity="1.0000000000000000e+00" nType="-99"/>
          </Node>
        </Node>
      </Node>
    </BinaryTree>
    <BinaryTree type="DecisionTree" boostWeight="1.0000000000000000e+00" itree="23">
      <Node pos="s" depth="0" NCoef="0" IVar="1" Cut="-1.6146965026855469e+01" cType="0" res="-1.3077108860015869e+00" rms="6.5020797729492188e+01" purity="1.0000000000000000e+00" nType="0">
        <Node pos="l" depth="1" NCoef="0" IVar="3" Cut="-3.9432228088378906e+01" cType="0" res="3.4818378448486328e+01" rms="5.3628162384033203e+01" purity="1.0000000000000000e+00" nType="0">
          <Node pos="l" depth="2" NCoef="0" IVar="3" Cut="3.7078159332275391e+01" cType="0" res="5.7654880523681641e+01" rms="2.9110855102539062e+01" purity="1.0000000000000000e+00" nType="0">
            <Node pos="l" depth="3" NCoef="0" IVar="-1" Cut="0.0000000000000000e+00" cType="1" res="7.6851016283035278e-01" rms="1.4088767051696777e+01" purity="1.0000000000000000e+00" nType="-99"/>
            <Node pos="r" depth="3" NCoef="0" IVar="-1" Cut="0.0000000000000000e+00" cType="1" res="8.6022401228547096e-03" rms="3.8072963714599609e+01" purity="1.0000000000000000e+00" nType="-99"/>
          </Node>
          <Node pos="r" depth="2" NCoef="0" IVar="1" Cut="5.2953094482421875e+01" cType="0" res="-4.3988071441650391e+01" rms="4.3198829650878906e+01" purity="1.0000000000000000e+00" nType="0">
            <Node pos="l" depth="3" NCoef="0" IVar="-1" Cut="0.0000000000000000e+00" cType="1" res="1.4571323990821838e-01" rms="3.2481449127197266e+01" purity="1.0000000000000000e+00" nType="-99"/>
            <Node pos="r" depth="3" NCoef="0" IVar="-1" Cut="0.0000000000000000e+00" cType="1" res="-2.4337252974510193e-01" rms="2.8007305145263672e+01" purity="1.0000000000000000e+00" nType="-99"/>
          </Node>
        </Node>
        <Node pos="r" depth="1" NCoef="0" IVar="3" Cut="6.6278450012207031e+01" cType="0" res="-5.4949962615966797e+01" rms="3.7675624847412109e+01" purity="1.0000000000000000e+00" nType="0">
          <Node pos="l" depth="2" NCoef="0" IVar="3" Cut="1.4124957275390625e+02" cType="0" res="4.0578441619873047e+01" rms="3.6819999694824219e+01" purity="1.0000000000000000e+00" nType="0">
            <Node pos="l" depth="3" NCoef="0" IVar="-1" Cut="0.0000000000000000e+00" cType="1" res="-9.8268139362335205e-01" rms="1.1128257751464844e+01" purity="1.0000000000000000e+00" nType="-99"/>
            <Node pos="r" depth="3" NCoef="0" IVar="-1" Cut="0.0000000000000000e+00" cType="1" res="-1.7017711699008942e-01" rms="3.1641633987426758e+01" purity="1.0000000000000000e+00" nType="-99"/>
          </Node>
          <Node pos="r" depth="2" NCoef="0" IVar="3" Cut="6.3013758659362793e+00" cType="0" res="-6.1415439605712891e+01" rms="2.7646471023559570e+01" purity="1.0000000000000000e+00" nType="0">
            <Node pos="l" depth="3" NCoef="0" IVar="-1" Cut="0.0000000000000000e+00" cType="1" res="-1.1159120500087738e-01" rms="4.1086494445800781e+01" purity="1.0000000000000000e+00" nType="-99"/>
            <Node pos="r" depth="3" NCoef="0" IVar="-1" Cut="0.0000000000000000e+00" cType="1" res="-7.1529567241668701e-01" rms="1.2986606597900391e+01" purity="1.0000000000000000e+00" nType="-99"/>
          </Node>
        </Node>
      </Node>
    </BinaryTree>
    <BinaryTree type="DecisionTree" boostWeight="1.0000000000000000e+00" itree="24">
      <Node pos="s" depth="0" NCoef="0" IVar="1" Cut="7.6968579292297363e+00" cType="0" res="1.4643859863281250e+00" rms="6.3208183288574219e+01" purity="1.0000000000000000e+00" nType="0">
        <Node pos="l" depth="1" NCoef="0" IVar="3" Cut="-1.0518770599365234e+02" cType="0" res="4.4858863830566406e+01" rms="4.6507553100585938e+01" purity="1.0000000000000000e+00" nType="0">
          <Node pos="l" depth="2" NCoef="0" IVar="3" Cut="6.9099221229553223e+00" cType="0" res="5.3591754913330078e+01" rms="3.4612461090087891e+01" purity="1.0000000000000000e+00" nType="0">
            <Node pos="l" depth="3" NCoef="0" IVar="-1" Cut="0.0000000000000000e+00" cType="1" res="7.2844207286834717e-01" rms="1.7388879776000977e+01" purity="1.0000000000000000e+00" nType="-99"/>
            <Node pos="r" depth="3" NCoef="0" IVar="-1" Cut="0.0000000000000000e+00" cType="1" res="1.2193878181278706e-02" rms="4.3258281707763672e+01" purity="1.0000000000000000e+00" nType="-99"/>
          </Node>
          <Node pos="r" depth="2" NCoef="0" IVar="1" Cut="8.2818679809570312e+01" cType="0" res="-6.4324714660644531e+01" rms="3.6776550292968750e+01" purity="1.0000000000000000e+00" nType="0">
            <Node pos="l" depth="3" NCoef="0" IVar="-1" Cut="0.0000000000000000e+00" cType="1" res="5.1003819704055786e-01" rms="4.2300128936767578e+01" purity="1.0000000000000000e+00" nType="-99"/>
            <Node pos="r" depth="3" NCoef="0" IVar="-1" Cut="0.0000000000000000e+00" cType="1" res="-1.2444695234298706e+00" rms="1.2427085876464844e+01" purity="1.0000000000000000e+00" nType="-99"/>
          </Node>
        </Node>
        <Node pos="r" depth="1" NCoef="0" IVar="3" Cut="5.9443244934082031e+01" cType="0" res="-3.9655681610107422e+01" rms="4.7500698089599609e+01" purity="1.0000000000000000e+00" nType="0">
          <Node pos="l" depth="2" NCoef="0" IVar="1" Cut="-5.2376720428466797e+01" cType="0" res="4.5910835266113281e+01" rms="3.4889270782470703e+01" purity="1.0000000000000000e+00" nType="0">
            <Node pos="l" depth="3" NCoef="0" IVar="-1" Cut="0.0000000000000000e+00" cType="1" res="3.8312040269374847e-02" rms="2.2284536361694336e+01" purity="1.0000000000000000e+00" nType="-99"/>
            <Node pos="r" depth="3" NCoef="0" IVar="-1" Cut="0.0000000000000000e+00" cType="1" res="-1.9920063018798828e-01" rms="3.0119915008544922e+01" purity="1.0000000000000000e+00" nType="-99"/>
          </Node>
          <Node pos="r" depth="2" NCoef="0" IVar="3" Cut="-1.8588628768920898e+01" cType="0" res="-5.3452743530273438e+01" rms="3.2448909759521484e+01" purity="1.0000000000000000e+00" nType="0">
            <Node pos="l" depth="3" NCoef="0" IVar="-1" Cut="0.0000000000000000e+00" cType="1" res="-7.7930696308612823e-02" rms="4.0014453887939453e+01" purity="1.0000000000000000e+00" nType="-99"/>
            <Node pos="r" depth="3" NCoef="0" IVar="-1" Cut="0.0000000000000000e+00" cType="1" res="-5.7618695497512817e-01" rms="1.4490392684936523e+01" purity="1.0000000000000000e+00" nType="-99"/>
          </Node>
        </Node>
      </Node>
    </BinaryTree>
    <BinaryTree type="DecisionTree" boostWeight="1.0000000000000000e+00" itree="25">
      <Node pos="s" depth="0" NCoef="0" IVar="1" Cut="2.5625638961791992e+00" cType="0" res="3.5705714225769043e+00" rms="6.5252258300781250e+01" purity="1.0000000000000000e+00" nType="0">
        <Node pos="l" depth="1" NCoef="0" IVar="3" Cut="-8.9398704528808594e+01" cType="0" res="4.0481925964355469e+01" rms="5.2611064910888672e+01" purity="1.0000000000000000e+00" nType="0">
          <Node pos="l" depth="2" NCoef="0" IVar="1" Cut="5.3024383544921875e+01" cType="0" res="5.5687648773193359e+01" rms="3.4052799224853516e+01" purity="1.0000000000000000e+00" nType="0">
            <Node pos="l" depth="3" NCoef="0" IVar="-1" Cut="0.0000000000000000e+00" cType="1" res="8.6405402421951294e-01" rms="1.9204498291015625e+01" purity="1.0000000000000000e+00" nType="-99"/>
            <Node pos="r" depth="3" NCoef="0" IVar="-1" Cut="0.0000000000000000e+00" cType="1" res="-1.1544164270162582e-01" rms="3.7615024566650391e+01" purity="1.0000000000000000e+00" nType="-99"/>
          </Node>
          <Node pos="r" depth="2" NCoef="0" IVar="1" Cut="6.3935340881347656e+01" cType="0" res="-6.5579032897949219e+01" rms="3.3533309936523438e+01" purity="1.0000000000000000e+00" nType="0">
            <Node pos="l" depth="3" NCoef="0" IVar="-1" Cut="0.0000000000000000e+00" cType="1" res="8.0126561224460602e-02" rms="3.8742317199707031e+01" purity="1.0000000000000000e+00" nType="-99"/>
            <Node pos="r" depth="3" NCoef="0" IVar="-1" Cut="0.0000000000000000e+00" cType="1" res="-8.6722457408905029e-01" rms="1.3320331573486328e+01" purity="1.0000000000000000e+00" nType="-99"/>
          </Node>
        </Node>
        <Node pos="r" depth="1" NCoef="0" IVar="3" Cut="6.6388732910156250e+01" cType="0" res="-4.3286533355712891e+01" rms="4.7160411834716797e+01" purity="1.0000000000000000e+00" nType="0">
          <Node pos="l" depth="2" NCoef="0" IVar="3" Cut="1.4689834594726562e+02" cType="0" res="5.4724300384521484e+01" rms="3.3137992858886719e+01" purity="1.0000000000000000e+00" nType="0">
            <Node pos="l" depth="3" NCoef="0" IVar="-1" Cut="0.0000000000000000e+00" cType="1" res="-3.1729137897491455e-01" rms="8.7908229827880859e+00" purity="1.0000000000000000e+00" nType="-99"/>
            <Node pos="r" depth="3" NCoef="0" IVar="-1" Cut="0.0000000000000000e+00" cType="1" res="-1.0771707445383072e-01" rms="3.1422567367553711e+01" purity="1.0000000000000000e+00" nType="-99"/>
          </Node>
          <Node pos="r" depth="2" NCoef="0" IVar="3" Cut="-1.5010532379150391e+01" cType="0" res="-5.4571170806884766e+01" rms="3.3472167968750000e+01" purity="1.0000000000000000e+00" nType="0">
            <Node pos="l" depth="3" NCoef="0" IVar="-1" Cut="0.0000000000000000e+00" cType="1" res="-4.5851200819015503e-02" rms="4.2296432495117188e+01" purity="1.0000000000000000e+00" nType="-99"/>
            <Node pos="r" depth="3" NCoef="0" IVar="-1" Cut="0.0000000000000000e+00" cType="1" res="-4.0262812376022339e-01" rms="1.5965808868408203e+01" purity="1.0000000000000000e+00" nType="-99"/>
          </Node>
        </Node>
      </Node>
    </BinaryTree>
    <BinaryTree type="DecisionTree" boostWeight="1.0000000000000000e+00" itree="26">
      <Node pos="s" depth="0" NCoef="0" IVar="1" Cut="-5.5638380050659180e+00" cType="0" res="4.3435277938842773e+00" rms="6.5978134155273438e+01" purity="1.0000000000000000e+00" nType="0">
        <Node pos="l" depth="1" NCoef="0" IVar="3" Cut="-5.5973499298095703e+01" cType="0" res="4.9290649414062500e+01" rms="4.3215362548828125e+01" purity="1.0000000000000000e+00" nType="0">
          <Node pos="l" depth="2" NCoef="0" IVar="3" Cut="1.1427654266357422e+01" cType="0" res="5.8526733398437500e+01" rms="3.1257949829101562e+01" purity="1.0000000000000000e+00" nType="0">
            <Node pos="l" depth="3" NCoef="0" IVar="-1" Cut="0.0000000000000000e+00" cType="1" res="2.4561741948127747e-01" rms="1.8040033340454102e+01" purity="1.0000000000000000e+00" nType="-99"/>
            <Node pos="r" depth="3" NCoef="0" IVar="-1" Cut="0.0000000000000000e+00" cType="1" res="-3.3242873847484589e-02" rms="4.1310501098632812e+01" purity="1.0000000000000000e+00" nType="-99"/>
          </Node>
          <Node pos="r" depth="2" NCoef="0" IVar="1" Cut="5.3147991180419922e+01" cType="0" res="-4.0656223297119141e+01" rms="4.0233142852783203e+01" purity="1.0000000000000000e+00" nType="0">
            <Node pos="l" depth="3" NCoef="0" IVar="-1" Cut="0.0000000000000000e+00" cType="1" res="-1.4402216672897339e-01" rms="3.4934375762939453e+01" purity="1.0000000000000000e+00" nType="-99"/>
            <Node pos="r" depth="3" NCoef="0" IVar="-1" Cut="0.0000000000000000e+00" cType="1" res="-2.9058966040611267e-01" rms="2.7986225128173828e+01" purity="1.0000000000000000e+00" nType="-99"/>
          </Node>
        </Node>
        <Node pos="r" depth="1" NCoef="0" IVar="3" Cut="6.5738044738769531e+01" cType="0" res="-4.8335124969482422e+01" rms="4.6080520629882812e+01" purity="1.0000000000000000e+00" nType="0">
          <Node pos="l" depth="2" NCoef="0" IVar="3" Cut="1.4644638061523438e+02" cType="0" res="5.1531970977783203e+01" rms="3.8422451019287109e+01" purity="1.0000000000000000e+00" nType="0">
            <Node pos="l" depth="3" NCoef="0" IVar="-1" Cut="0.0000000000000000e+00" cType="1" res="-2.0897407829761505e-01" rms="9.7190313339233398e+00" purity="1.0000000000000000e+00" nType="-99"/>
            <Node pos="r" depth="3" NCoef="0" IVar="-1" Cut="0.0000000000000000e+00" cType="1" res="-1.5775984525680542e-01" rms="3.6142475128173828e+01" purity="1.0000000000000000e+00" nType="-99"/>
          </Node>
          <Node pos="r" depth="2" NCoef="0" IVar="3" Cut="5.9204125404357910e+00" cType="0" res="-5.9465259552001953e+01" rms="3.0985843658447266e+01" purity="1.0000000000000000e+00" nType="0">
            <Node pos="l" depth="3" NCoef="0" IVar="-1" Cut="0.0000000000000000e+00" cType="1" res="-2.9939519241452217e-02" rms="4.2485305786132812e+01" purity="1.0000000000000000e+00" nType="-99"/>
            <Node pos="r" depth="3" NCoef="0" IVar="-1" Cut="0.0000000000000000e+00" cType="1" res="-1.9605433940887451e-01" rms="1.6789770126342773e+01" purity="1.0000000000000000e+00" nType="-99"/>
          </Node>
        </Node>
      </Node>
    </BinaryTree>
    <BinaryTree type="DecisionTree" boostWeight="1.0000000000000000e+00" itree="27">
      <Node pos="s" depth="0" NCoef="0" IVar="1" Cut="-4.1333932876586914e+00" cType="0" res="1.3565904617309570e+01" rms="6.3101734161376953e+01" purity="1.0000000000000000e+00" nType="0">
        <Node pos="l" depth="1" NCoef="0" IVar="3" Cut="-8.8298919677734375e+01" cType="0" res="5.0364662170410156e+01" rms="4.0704914093017578e+01" purity="1.0000000000000000e+00" nType="0">
          <Node pos="l" depth="2" NCoef="0" IVar="3" Cut="3.8560806274414062e+01" cType="0" res="5.5652473449707031e+01" rms="3.2883663177490234e+01" purity="1.0000000000000000e+00" nType="0">
            <Node pos="l" depth="3" NCoef="0" IVar="-1" Cut="0.0000000000000000e+00" cType="1" res="9.5668220520019531e-01" rms="1.3044219017028809e+01" purity="1.0000000000000000e+00" nType="-99"/>
            <Node pos="r" depth="3" NCoef="0" IVar="-1" Cut="0.0000000000000000e+00" cType="1" res="-4.8157535493373871e-02" rms="4.1427051544189453e+01" purity="1.0000000000000000e+00" nType="-99"/>
          </Node>
          <Node pos="r" depth="2" NCoef="0" IVar="1" Cut="1.6440724182128906e+02" cType="0" res="-5.8044033050537109e+01" rms="3.3630512237548828e+01" purity="1.0000000000000000e+00" nType="0">
            <Node pos="l" depth="3" NCoef="0" IVar="-1" Cut="0.0000000000000000e+00" cType="1" res="1.1184681653976440e+00" rms="1.3390128135681152e+01" purity="1.0000000000000000e+00" nType="-99"/>
            <Node pos="r" depth="3" NCoef="0" IVar="-1" Cut="0.0000000000000000e+00" cType="1" res="-4.1729062795639038e-01" rms="2.3471889495849609e+01" purity="1.0000000000000000e+00" nType="-99"/>
          </Node>
        </Node>
        <Node pos="r" depth="1" NCoef="0" IVar="3" Cut="6.9131263732910156e+01" cType="0" res="-3.6541187286376953e+01" rms="5.2848709106445312e+01" purity="1.0000000000000000e+00" nType="0">
          <Node pos="l" depth="2" NCoef="0" IVar="3" Cut="1.1893318939208984e+02" cType="0" res="6.1588706970214844e+01" rms="2.7620183944702148e+01" purity="1.0000000000000000e+00" nType="0">
            <Node pos="l" depth="3" NCoef="0" IVar="-1" Cut="0.0000000000000000e+00" cType="1" res="1.2121498584747314e+00" rms="1.2258260726928711e+01" purity="1.0000000000000000e+00" nType="-99"/>
            <Node pos="r" depth="3" NCoef="0" IVar="-1" Cut="0.0000000000000000e+00" cType="1" res="-7.5930751860141754e-02" rms="3.2225357055664062e+01" purity="1.0000000000000000e+00" nType="-99"/>
          </Node>
          <Node pos="r" depth="2" NCoef="0" IVar="3" Cut="-1.9422945022583008e+01" cType="0" res="-5.4979969024658203e+01" rms="3.2016609191894531e+01" purity="1.0000000000000000e+00" nType="0">
            <Node pos="l" depth="3" NCoef="0" IVar="-1" Cut="0.0000000000000000e+00" cType="1" res="-2.9097771272063255e-02" rms="3.9342594146728516e+01" purity="1.0000000000000000e+00" nType="-99"/>
            <Node pos="r" depth="3" NCoef="0" IVar="-1" Cut="0.0000000000000000e+00" cType="1" res="-4.0848442912101746e-01" rms="1.3630014419555664e+01" purity="1.0000000000000000e+00" nType="-99"/>
          </Node>
        </Node>
      </Node>
    </BinaryTree>
    <BinaryTree type="DecisionTree" boostWeight="1.0000000000000000e+00" itree="28">
      <Node pos="s" depth="0" NCoef="0" IVar="1" Cut="-5.5638380050659180e+00" cType="0" res="-4.4947118759155273e+00" rms="6.3076618194580078e+01" purity="1.0000000000000000e+00" nType="0">
        <Node pos="l" depth="1" NCoef="0" IVar="3" Cut="-7.5921707153320312e+01" cType="0" res="3.9680541992187500e+01" rms="4.6895221710205078e+01" purity="1.0000000000000000e+00" nType="0">
          <Node pos="l" depth="2" NCoef="0" IVar="3" Cut="-3.3531040191650391e+01" cType="0" res="5.0536132812500000e+01" rms="3.4424026489257812e+01" purity="1.0000000000000000e+00" nType="0">
            <Node pos="l" depth="3" NCoef="0" IVar="-1" Cut="0.0000000000000000e+00" cType="1" res="6.5443865954875946e-02" rms="2.5973951339721680e+01" purity="1.0000000000000000e+00" nType="-99"/>
            <Node pos="r" depth="3" NCoef="0" IVar="-1" Cut="0.0000000000000000e+00" cType="1" res="-7.0682644844055176e-02" rms="4.5483982086181641e+01" purity="1.0000000000000000e+00" nType="-99"/>
          </Node>
          <Node pos="r" depth="2" NCoef="0" IVar="1" Cut="4.6095142364501953e+01" cType="0" res="-5.6355884552001953e+01" rms="3.0091955184936523e+01" purity="1.0000000000000000e+00" nType="0">
            <Node pos="l" depth="3" NCoef="0" IVar="-1" Cut="0.0000000000000000e+00" cType="1" res="-2.3293696343898773e-01" rms="3.9757488250732422e+01" purity="1.0000000000000000e+00" nType="-99"/>
            <Node pos="r" depth="3" NCoef="0" IVar="-1" Cut="0.0000000000000000e+00" cType="1" res="-7.1057057380676270e-01" rms="1.5592737197875977e+01" purity="1.0000000000000000e+00" nType="-99"/>
          </Node>
        </Node>
        <Node pos="r" depth="1" NCoef="0" IVar="3" Cut="6.5762527465820312e+01" cType="0" res="-4.6962177276611328e+01" rms="4.4831531524658203e+01" purity="1.0000000000000000e+00" nType="0">
          <Node pos="l" depth="2" NCoef="0" IVar="3" Cut="1.6259979248046875e+02" cType="0" res="5.3275257110595703e+01" rms="3.7807929992675781e+01" purity="1.0000000000000000e+00" nType="0">
            <Node pos="l" depth="3" NCoef="0" IVar="-1" Cut="0.0000000000000000e+00" cType="1" res="4.5297169685363770e+00" rms="3.7981300354003906e+00" purity="1.0000000000000000e+00" nType="-99"/>
            <Node pos="r" depth="3" NCoef="0" IVar="-1" Cut="0.0000000000000000e+00" cType="1" res="-8.1485286355018616e-02" rms="3.4888671875000000e+01" purity="1.0000000000000000e+00" nType="-99"/>
          </Node>
          <Node pos="r" depth="2" NCoef="0" IVar="3" Cut="7.4682765007019043e+00" cType="0" res="-5.7418991088867188e+01" rms="3.0214363098144531e+01" purity="1.0000000000000000e+00" nType="0">
            <Node pos="l" depth="3" NCoef="0" IVar="-1" Cut="0.0000000000000000e+00" cType="1" res="-5.0434000790119171e-02" rms="4.2476825714111328e+01" purity="1.0000000000000000e+00" nType="-99"/>
            <Node pos="r" depth="3" NCoef="0" IVar="-1" Cut="0.0000000000000000e+00" cType="1" res="-2.5668409466743469e-01" rms="1.5511132240295410e+01" purity="1.0000000000000000e+00" nType="-99"/>
          </Node>
        </Node>
      </Node>
    </BinaryTree>
    <BinaryTree type="DecisionTree" boostWeight="1.0000000000000000e+00" itree="29">
      <Node pos="s" depth="0" NCoef="0" IVar="1" Cut="5.8084797859191895e-01" cType="0" res="-5.0958399772644043e+00" rms="6.4799652099609375e+01" purity="1.0000000000000000e+00" nType="0">
        <Node pos="l" depth="1" NCoef="0" IVar="3" Cut="-5.7570549011230469e+01" cType="0" res="4.1711673736572266e+01" rms="5.0414894104003906e+01" purity="1.0000000000000000e+00" nType="0">
          <Node pos="l" depth="2" NCoef="0" IVar="3" Cut="3.5765693664550781e+01" cType="0" res="5.7200267791748047e+01" rms="3.1496265411376953e+01" purity="1.0000000000000000e+00" nType="0">
            <Node pos="l" depth="3" NCoef="0" IVar="-1" Cut="0.0000000000000000e+00" cType="1" res="1.1940388679504395e+00" rms="1.3971707344055176e+01" purity="1.0000000000000000e+00" nType="-99"/>
            <Node pos="r" depth="3" NCoef="0" IVar="-1" Cut="0.0000000000000000e+00" cType="1" res="-4.0623418986797333e-02" rms="3.7967819213867188e+01" purity="1.0000000000000000e+00" nType="-99"/>
          </Node>
          <Node pos="r" depth="2" NCoef="0" IVar="3" Cut="-1.0679119110107422e+02" cType="0" res="-5.4358989715576172e+01" rms="3.7895114898681641e+01" purity="1.0000000000000000e+00" nType="0">
            <Node pos="l" depth="3" NCoef="0" IVar="-1" Cut="0.0000000000000000e+00" cType="1" res="-1.5578044950962067e-01" rms="3.5150291442871094e+01" purity="1.0000000000000000e+00" nType="-99"/>
            <Node pos="r" depth="3" NCoef="0" IVar="-1" Cut="0.0000000000000000e+00" cType="1" res="-1.1475750207901001e+00" rms="1.2731845855712891e+01" purity="1.0000000000000000e+00" nType="-99"/>
          </Node>
        </Node>
        <Node pos="r" depth="1" NCoef="0" IVar="3" Cut="6.5008692741394043e+00" cType="0" res="-5.1891273498535156e+01" rms="3.8414981842041016e+01" purity="1.0000000000000000e+00" nType="0">
          <Node pos="l" depth="2" NCoef="0" IVar="1" Cut="-5.3164882659912109e+01" cType="0" res="-1.9453701019287109e+01" rms="4.9679870605468750e+01" purity="1.0000000000000000e+00" nType="0">
            <Node pos="l" depth="3" NCoef="0" IVar="-1" Cut="0.0000000000000000e+00" cType="1" res="5.1057849079370499e-02" rms="3.5680522918701172e+01" purity="1.0000000000000000e+00" nType="-99"/>
            <Node pos="r" depth="3" NCoef="0" IVar="-1" Cut="0.0000000000000000e+00" cType="1" res="-4.6221897006034851e-01" rms="2.8809030532836914e+01" purity="1.0000000000000000e+00" nType="-99"/>
          </Node>
          <Node pos="r" depth="2" NCoef="0" IVar="1" Cut="-6.6230278015136719e+01" cType="0" res="-6.6804756164550781e+01" rms="1.7699880599975586e+01" purity="1.0000000000000000e+00" nType="0">
            <Node pos="l" depth="3" NCoef="0" IVar="-1" Cut="0.0000000000000000e+00" cType="1" res="-1.1889662593603134e-01" rms="1.8102487564086914e+01" purity="1.0000000000000000e+00" nType="-99"/>
            <Node pos="r" depth="3" NCoef="0" IVar="-1" Cut="0.0000000000000000e+00" cType="1" res="-6.8497877120971680e+00" rms="6.1839871406555176e+00" purity="1.0000000000000000e+00" nType="-99"/>
          </Node>
        </Node>
      </Node>
    </BinaryTree>
    <BinaryTree type="DecisionTree" boostWeight="1.0000000000000000e+00" itree="30">
      <Node pos="s" depth="0" NCoef="0" IVar="3" Cut="-1.9661321640014648e+01" cType="0" res="2.2607140541076660e+00" rms="6.1309581756591797e+01" purity="1.0000000000000000e+00" nType="0">
        <Node pos="l" depth="1" NCoef="0" IVar="1" Cut="7.2030591964721680e+00" cType="0" res="4.2594551086425781e+01" rms="4.0107715606689453e+01" purity="1.0000000000000000e+00" nType="0">
